he,-0.200920001,-0.060270999,-0.617659986,-0.844399989,0.578100026,0.146709993,-0.860979974,0.67049998,-0.865559995,-0.182339996,0.158559993,0.458139986,-1.016299963,-0.358740002,0.738690019,-0.240480006,-0.338930011,0.257420003,-0.781920016,0.083527997,0.177499995,0.917729974,0.645309985,-0.198960006,0.374159992,-2.752500057,-0.091586001,0.040348999,-0.064792,-0.314660013,3.394399881,0.044941001,-0.550379992,-0.653339982,0.104359999,0.016394001,0.243880004,1.00849998,0.314119995,-0.338059992,-0.169249997,0.102279998,-0.62142998,0.198290005,-0.361470014,-0.247690007,-0.389889985,-0.333169997,-0.041659001,-0.013171
she,0.060382001,0.378210008,-0.751420021,-0.721589983,0.586480021,0.791260004,-0.729470015,0.682479978,-0.129989997,-0.229880005,0.115950003,0.224270001,-0.44679001,-0.115149997,1.033400059,-0.088018999,-0.78530997,0.343050003,-0.114569999,-0.119050004,0.458829999,1.633299947,0.685459971,0.223079994,1.009899974,-2.63319993,-0.521279991,0.256650001,0.023468001,-0.826160014,3.108400106,0.272190005,-0.292270005,-0.472589999,-0.12297,-0.135450006,0.111919999,0.864380002,0.331209987,-0.966159999,-0.044785,-0.066739999,0.0030367,-0.339049995,0.017783999,-0.584990025,-0.005014,-1.256999969,-0.060722999,0.422470003
president,-0.118749999,0.672200024,0.194440007,0.552690029,0.536979973,-0.372370005,-0.734939992,-0.305750012,-0.926010013,-0.43276,0.026955999,0.668609977,-0.790970027,-0.015931999,0.539179981,0.303409994,-0.670419991,0.0051129,0.622720003,-0.558229983,-0.10887,0.573050022,-0.016148999,-1.188899994,-0.243180007,-2.628900051,0.412620008,-0.129040003,-1.323799968,0.647310019,2.359499931,0.34048,-1.988899946,-0.79084003,-0.797389984,-0.879980028,-0.729910016,0.011697,0.090612002,-0.172869995,-0.832740009,1.193199992,-0.752110004,-1.160300016,-0.100740001,0.602240026,-1.373900056,0.336739987,-0.312240005,0.097583003
minister,0.039930999,0.507250011,-0.186250001,0.322679996,0.654269993,0.202859998,-0.496600002,0.133829996,-1.711199999,-1.094300032,0.10988,0.747129977,-0.327609986,0.663330019,0.606019974,0.362980008,0.547330022,-0.800939977,1.263299942,0.818979979,0.497940004,0.580070019,-0.243259996,-0.726329982,0.829710007,-1.87440002,1.255399942,-0.242060006,-1.128299952,1.833699942,2.896699905,0.067547999,-0.972450018,0.14373,-0.180869997,0.58634001,0.527649999,0.463889986,-0.031851999,0.90933001,-0.397489995,1.665400028,-0.288789988,-1.961500049,0.893559992,0.158350006,-2.187700033,0.931919992,1.906599998,-0.158899993
director,-0.175740004,0.364459991,-0.786580026,0.68581003,0.15354,-0.541649997,-0.711369991,-1.101999998,0.736440003,-0.574029982,0.508019984,1.061300039,-1.09829998,0.457010001,0.501209974,-0.38451001,0.731339991,0.773459971,-0.152500004,0.309960008,0.367020011,0.768230021,-0.298390001,-0.495469987,-0.098021001,-1.630300045,-0.354589999,-0.49011001,-1.722599983,0.036722999,2.385799885,-0.265159994,0.272350013,-1.030699968,-0.769200027,0.041910999,0.087943003,0.52414,1.120900035,0.371740013,-0.216240004,1.308599949,-0.178440005,-1.229799986,0.126959994,-0.374879986,-0.702780008,-0.107670002,-0.117420003,1.762799978
secretary,-0.14508,0.146449998,-0.76128,0.385529995,0.743529975,-0.850690007,-0.365119994,-0.236059994,-0.455980003,-2.253200054,-0.365139991,1.226899981,-0.451700002,0.080076002,0.359059989,0.057693001,0.022399999,-0.300339997,0.779820025,-0.042606,-0.070339002,0.176960006,0.526560009,-1.070700049,0.396649987,-1.800300002,0.945309997,-0.062871002,-1.608299971,0.769490004,2.38319993,-0.346060008,-1.06219995,-0.481849998,-0.407519996,-0.615450025,-0.011299,0.151030004,-0.132210001,0.52838999,-0.857860029,1.155799985,-0.35047999,-1.352399945,0.227050006,0.297509998,-1.335199952,0.560350001,0.277079999,1.1954
coach,-1.319100022,0.500710011,-0.440910012,0.278539985,-0.281670004,-0.773180008,-1.868399978,0.658500016,-1.758100033,-0.934149981,1.172500014,1.140100002,-1.70570004,-0.790790021,1.235299945,0.202199996,0.359950006,0.914420009,-1.025200009,-0.442640007,-2.385400057,0.270660013,-0.289499998,-0.172930002,0.30399999,-1.84829998,0.400810003,0.396010011,-0.48398,-0.268920004,1.900300026,1.057000041,-0.101489998,-0.405429989,0.471480012,0.716780007,0.412539989,1.029299974,0.71875,-0.354880005,-0.280580014,0.595939994,-0.895049989,-0.280629992,0.614139974,0.577229977,-0.192359999,1.100700021,-0.202130005,0.825200021
manager,-0.134399995,0.264809996,-0.290719986,0.925140023,0.575269997,-0.885850012,-1.94509995,0.392699987,-0.853739977,-0.634130001,0.654020011,1.694700003,-1.636399984,-0.664409995,0.619920015,0.202319995,0.407889992,0.744260013,-0.388990015,-0.167099997,-0.154730007,0.0090774,-0.636919975,-0.207139999,-0.594359994,-1.263700008,0.698939979,0.191259995,-0.26967001,-0.131589994,2.312999964,0.253239989,0.58130002,-0.328799993,0.065847002,0.279769987,0.186539993,0.414249986,1.170400023,-0.622500002,0.254119992,0.135169998,-1.205800056,-0.25147,0.327499986,-0.388139993,-0.841369987,0.519519985,0.460379988,1.468500018
judge,-0.41753,-0.77214998,-0.773580015,0.103289999,1.039100051,0.145510003,0.522210002,1.022500038,0.054505002,-0.228430003,-0.451730013,0.474979997,-0.498180002,-0.246739998,1.270499945,-0.122400001,-0.135759994,-1.348700047,0.199599996,-0.855539978,0.559790015,0.665220022,-0.035259001,0.207499996,-0.496160001,-2.551000118,0.194069996,-0.163320005,-1.119600058,-0.5801,1.496299982,-1.607200027,-0.575699985,-1.139000058,0.464450002,-0.928359985,1.084800005,-0.16223,0.489309996,-0.136659995,-0.193660006,1.619899988,0.343030006,0.016868999,-0.653609991,-0.0016779,-0.533399999,-0.608129978,0.253969997,0.962589979
officer,0.048402999,-0.607029974,0.191080004,0.180069998,1.200399995,-0.386429995,-0.343210012,0.39655,0.195099995,-2.093400002,0.398030013,0.722190022,-1.319499969,-0.254460007,-0.120970003,-0.649999976,-0.772949994,0.784160018,-0.682919979,-0.123360001,0.330540001,0.853680015,-0.199650005,-0.355120003,-0.704879999,-2.195800066,0.043191999,-0.616289973,-0.527540028,0.504509985,2.02579999,-0.683920026,-0.125239998,-0.769349992,0.449900001,0.427260011,0.0019608,-0.477400005,0.706449986,0.318179995,0.163790002,0.721870005,-0.0033517,-0.422250003,0.221369997,-0.977569997,-0.428579986,-0.149240002,0.223450005,1.057000041
deputy,-0.556289971,0.183939993,-0.107790001,0.761780024,1.045699954,-0.420810014,0.11208,0.15151,-0.493880004,-2.282500029,0.260500014,0.483370006,-0.535099983,0.536189973,-0.0043887,-0.042649001,-0.065730996,0.312559992,0.703450024,0.607869983,0.208309993,0.049667001,0.391730011,-0.407620013,-0.284850001,-2.014100075,0.814310014,-0.124420002,-1.481600046,0.984549999,2.063800097,-0.512690008,-0.437709987,-0.664110005,-0.130850002,0.375519991,0.327740014,0.446319997,0.367399991,0.698199987,-0.46886,1.484200001,-0.370620012,-1.409700036,0.26286,-0.411669999,-1.474699974,0.360040009,0.779049993,0.922909975
attorney,-0.371960014,-0.506560028,-0.463889986,0.891910017,0.60540998,0.397109985,-0.716210008,0.795599997,-0.019165,-0.842159986,-0.780219972,0.411240011,-0.46983999,-0.716600001,0.730340004,-0.397300005,0.047903001,-0.92930001,0.559119999,-0.485960007,0.078639999,0.559870005,-0.28828001,-0.30061999,-0.950139999,-2.51850009,0.345299989,-0.339659989,-0.750580013,-0.542550027,1.24969995,-1.488299966,-0.592899978,-1.549600005,0.379500002,-0.765150011,0.050115,-0.142240003,1.006100059,-0.027171001,-0.174380004,1.475999951,0.0070303,0.068585999,-0.296050012,-0.559319973,-0.969850004,-0.049543001,-0.272920012,1.707900047
professor,-1.271000028,1.078699946,-1.120000005,-0.365379989,0.32833001,0.083114997,-0.2667,-0.831219971,-0.525640011,-0.390549988,0.458600014,0.58634001,-0.401199996,-0.390879989,-0.034968998,-0.014775,0.109200001,0.67148,-0.309269994,1.248299956,0.461309999,1.084699988,-0.0096554,-0.277949989,0.544130027,-2.195499897,-0.052889001,-0.95599997,-1.736899972,0.212369993,1.542000055,-1.280900002,-0.074123003,-1.70720005,-0.268709987,-0.209910005,-0.508939981,1.213400006,2.073199987,0.637030005,-0.034836002,0.591600001,-0.110229999,0.062066,0.573819995,0.195720002,0.646979988,-0.123209998,-0.130050004,1.047799945
student,-1.072900057,0.941030025,0.084904,-1.076599956,0.428660005,0.099877,-0.510810018,-0.249610007,-0.308829993,0.195529997,0.196500003,-0.731519997,0.096915998,-0.062685996,0.120779999,-0.723839998,-0.381999999,0.693400025,0.329560012,0.402440012,0.534850001,0.917810023,-0.445529997,0.718039989,-0.136350006,-1.690600038,0.158179998,-1.236700058,-1.227800012,-0.058566,2.754400015,0.186719999,-0.263000011,-1.279199958,0.169919997,0.407480001,0.122479998,0.112109996,0.783179998,0.036392,-0.408080012,-0.058474001,-0.279320002,0.330350012,0.52384001,-1.048699975,0.275649995,0.0363,0.048604,0.282389998
lawyer,-0.480760008,-0.024484999,-0.565140009,0.568109989,1.029199958,0.341969997,-0.46103999,0.791469991,-0.301580012,-0.059771001,-0.375010014,0.244120002,-0.693690002,-0.225830004,0.686600029,-0.509949982,0.011649,-0.424650013,0.412200004,-0.043692999,0.250330001,1.475700021,-0.551789999,0.170499995,-0.436830014,-2.560600042,0.25534001,-0.696929991,-0.883700013,0.055147,1.36740005,-1.495399952,-0.498679996,-0.654760003,0.118069999,-0.681949973,0.079268999,0.090490997,1.043900013,0.081197999,0.535319984,1.215299964,0.171279997,0.617429972,0.217380002,-0.789699972,-1.190299988,-0.093860999,0.125200003,0.990360022
character,0.194749996,0.609939992,-0.666199982,0.018510001,1.372900009,1.481299996,0.091457002,-0.772899985,-0.622009993,0.341659993,-0.131919995,1.458500028,-0.51710999,0.165089995,0.398889989,-0.295949996,0.177919999,0.419070005,-0.0068121,-0.023073999,-0.504130006,0.49823001,-0.046273999,0.637950003,0.737519979,-1.19509995,-1.239199996,0.060245998,0.399170011,-0.330980003,2.328299999,-0.468430012,0.407979995,-1.082299948,0.360009998,0.908010006,-0.289240003,-0.446020007,-1.040699959,-1.08130002,0.287750006,0.707759976,-0.910160005,-0.615960002,-0.39824,-0.110529996,0.426640004,-0.713729978,0.230440006,0.831449986
captain,-0.119050004,-0.412669986,-0.667550027,-0.317869991,0.928240001,-0.32615,-0.855300009,0.98793,-0.210789993,-1.048099995,0.897920012,2.308099985,-1.501099944,0.198430002,0.118000001,-0.573400021,0.421139985,-0.234300002,-2.075000048,-0.040922001,-1.082000017,0.697009981,0.30083999,-0.234940007,0.302370012,-1.506299973,0.73842001,-0.549390018,-0.340840012,0.41475001,1.629999995,-0.189490005,-0.084894001,0.580770016,0.840279996,0.626619995,0.791750014,0.053091999,-0.116449997,-0.247879997,0.658159971,0.833570004,0.095657997,-0.662750006,-0.394650012,0.779739976,-0.599550009,-0.481869996,0.328060001,-0.075065002
analyst,-0.349029988,0.756110013,0.687629998,1.122499943,0.756980002,-0.884490013,-0.52925998,-0.47330001,-0.611150026,-0.169520006,0.068815999,0.938059986,-1.335399985,-0.332749993,-0.216030002,0.721689999,1.033499956,-0.468290001,-0.57032001,-0.080463998,0.811930001,0.254819989,-0.169330001,-0.239930004,-0.153170004,-0.93621999,-0.076738998,-0.161029994,-1.001299977,0.508970022,1.716699958,-0.807680011,1.671700001,-0.331919998,-0.286830008,-1.417500019,-1.022199988,-0.193749994,1.613000035,0.021398,0.544830024,1.052600026,0.068550996,-0.77125001,1.034399986,-0.756590009,0.186059996,0.927079976,0.453550011,1.965600014
commander,0.552429974,-0.462949991,0.556689978,0.073398001,1.479699969,-1.22329998,0.239889994,0.824410021,-0.337630004,-2.069400072,0.424659997,0.593180001,-1.231600046,0.164320007,-0.674189985,-0.394389987,0.0092079,0.415280014,-0.842220008,0.34375,-0.772840023,0.249359995,0.081184,-0.601549983,-0.643260002,-1.860800028,-0.31904,-0.671209991,-0.262210011,1.11559999,1.73360002,-1.006000042,-1.075799942,-0.284579992,0.854470015,0.354790002,0.102260001,-0.503480017,-0.735170007,0.661220014,0.179629996,1.086699963,-0.118349999,-1.733899951,0.081781,-0.642279983,-0.464120001,-0.092835002,-0.59671998,1.037299991
writer,-1.210000038,1.370000005,-0.47428,0.109999999,0.198850006,0.046321999,-1.455199957,-0.318720013,-0.373569995,0.346740007,-0.245560005,0.75187999,-0.385430008,0.282680005,1.240100026,-0.901149988,0.247260004,-0.315100014,0.029514,1.154999971,0.486860007,1.128299952,0.351289988,1.142400026,1.278900027,-1.54279995,-1.086699963,-0.989239991,-0.362509996,0.521449983,1.724799991,-1.464100003,0.835959971,-0.99654001,-0.620850027,0.345290005,-0.995069981,0.510999978,0.261200011,0.438719988,1.209599972,1.849599957,-0.036029,-1.022699952,0.297239989,-0.023403,-0.170839995,-0.190620005,0.065723002,0.687049985
author,-0.502460003,1.217800021,-0.800650001,-0.458539993,0.657790005,0.885339975,-1.182899952,-0.988740027,0.171639994,0.191839993,-0.566229999,0.897059977,-0.122560002,0.043017998,1.25,-1.109400034,0.264869988,-0.142649993,-0.064217001,0.871010005,0.249019995,0.820739985,0.077487998,0.394309998,1.185500026,-1.690400004,-1.096099973,-0.974529982,-0.60977,0.431679994,1.64230001,-1.682299972,-0.011841,-0.56783998,-0.421629995,0.0045148,-0.659210026,0.396459997,0.403180003,-0.073082,0.894200027,0.908219993,0.130349994,-0.197909996,0.218840003,0.327969998,0.063391998,-0.034283001,-0.163749993,0.68641001
editor,-1.351999998,0.82277,-0.093772002,0.287710011,0.50168997,-0.615939975,-1.533900023,-0.920009971,0.128820002,-0.984740019,-0.367410004,0.825730026,-0.931010008,0.285219997,0.913749993,-0.628050029,-0.648459971,0.079040997,0.400339991,0.560450017,0.711239994,0.845579982,0.309489995,1.031200051,0.444099993,-1.240800023,-0.783110023,-0.428770006,-0.377660006,0.826330006,1.800999999,-1.59860003,0.364329994,-0.529240012,-1.076699972,0.090383999,-0.443549991,0.281569988,0.520420015,0.137620002,1.47329998,0.837650001,-0.468010008,-0.179769993,-0.224969998,0.178269997,-0.295489997,0.058566999,0.126460001,1.216300011
ambassador,0.00079396,0.991180003,-0.527469993,0.231560007,0.954370022,-0.844139993,-0.163770005,0.384680003,-0.227329999,-0.97062999,0.446749985,0.465680003,-0.091760002,0.037161,0.910380006,0.144830003,0.171739995,-0.246930003,0.366939992,0.355170012,0.202690005,0.966809988,-0.095293,-0.400660008,0.335750014,-1.931300044,0.892809987,0.184400007,-1.034000039,0.315679997,0.991909981,-0.592710018,-0.818599999,-0.41178,-0.150330007,-0.698339999,0.067959003,0.297140002,-1.262699962,0.453530014,0.376060009,1.490100026,1.142799973,-2.369199991,0.34810999,0.174879998,-1.166599989,0.371140003,-0.763800025,0.384449989
actor,-0.661740005,1.019999981,-0.17757,-0.316170007,0.649699986,1.212299943,-0.299879998,-0.299230009,-0.987510026,1.012799978,-0.034051001,0.840359986,-0.277720004,0.884940028,1.132799983,-0.539640009,0.737309992,0.783159971,-1.097300053,0.284249991,-0.072976001,1.32130003,0.092697002,0.526910007,0.45765999,-1.37440002,-0.404619992,-0.469260007,-0.710240006,0.258929998,1.622799993,-0.320479989,0.628229976,-0.442909986,0.818359971,0.512769997,0.236520007,-0.01136,-0.478350013,-0.91881001,0.099026002,2.230400085,-0.345499992,-1.181699991,-0.649320006,-0.712419987,-0.273220003,-1.08920002,-0.322380006,1.310099959
doctor,0.669990003,0.116980001,-0.46322,-0.90012002,0.565599978,0.489800006,-0.260309994,0.712679982,0.623380005,0.02785,0.680119991,0.767449975,-0.020365,0.520969987,0.806219995,-0.205369994,-0.882629991,0.257070005,-0.180350006,0.809689999,-0.241479993,1.16170001,0.308340013,0.654950023,0.32863,-2.28489995,-0.692189991,-0.712409973,-0.502420008,-0.076540999,1.862400055,-0.203229994,-0.647490025,-0.516170025,0.502730012,0.789179981,0.626240015,0.374960005,1.28550005,-0.205809996,0.410299987,0.719959974,-0.162929997,0.291060001,0.471879989,-0.151209995,0.36688,-0.089993,0.37777999,0.598179996
artist,-0.910929978,0.998080015,-0.71438998,-0.230049998,0.60838002,0.593410015,-1.485200047,-0.529829979,-0.403100014,1.302899957,0.84145999,0.322959989,0.264090002,0.758520007,0.682070017,-0.782400012,0.518790007,-0.104790002,-0.048726998,-0.052308999,0.436489999,0.811049998,-0.723380029,0.170039997,0.51888001,-0.61164999,-1.441499949,-0.825720012,-0.488940001,-0.54114002,1.932100058,-1.306900024,0.249400005,-0.946730018,-0.056784999,0.619700015,0.224800006,0.595790029,-0.231519997,-0.648329973,0.79132998,0.504800022,-0.035264,-1.297999978,0.303939998,-0.570749998,-0.251410007,-1.341400027,-0.335979998,0.37173
senator,-0.393339992,0.187480003,0.647099972,0.145270005,0.159659997,1.136899948,-0.79628998,0.354149997,-0.566110015,-1.041900039,-1.598099947,-0.043776002,0.133760005,-0.089369997,-0.295720011,-0.9005,-0.127580002,0.020343,0.439529985,-0.330879986,-0.791809976,0.0078458,0.259369999,-0.462040007,0.598699987,-2.655900002,0.230419993,-0.263249993,-0.63301003,0.396070004,1.031499982,-0.431039989,-1.192299962,-0.731289983,-0.038077001,-1.165300012,-0.423260003,0.786559999,-0.203749999,-0.718930006,-0.534370005,1.168200016,-0.876079977,-0.213860005,-0.458350003,0.287389994,-1.131899953,-0.358480006,-0.0080362,1.50940001
singer,-1.050899982,0.825519979,-0.629790008,0.170900002,0.187769994,1.412899971,-1.428900003,0.374040008,-0.233860001,1.67750001,0.802550018,0.110399999,0.073592998,0.481840014,0.81062001,-0.625909984,-0.016186001,-0.210309997,0.270830005,-0.215719998,-0.354350001,1.69509995,0.077789001,0.672800004,0.320410013,-0.554109991,-0.786599994,-0.419939995,-0.761259973,-0.25733,2.003799915,-0.898479998,0.554260015,0.638599992,0.584770024,-0.398490012,0.551429987,-0.630599976,0.034998,-0.576510012,0.077739999,0.98101002,-0.611090004,-1.71389997,0.450610012,-0.568570018,-0.837469995,-1.538200021,-0.869430006,0.629000008
commissioner,-0.737370014,-0.176520005,-1.140599966,0.411870003,-0.333000004,-0.37371999,-0.788789988,-0.274789989,0.484160006,-2.39289999,0.398250014,1.069399953,-0.763199985,-0.43551001,1.664899945,0.360110015,0.84473002,-0.425520003,0.501030028,-0.457969993,-0.085648,-0.271499991,-0.855170012,0.106030002,0.193780005,-1.496299982,1.078199983,0.041140001,-1.427299976,0.548650026,1.464300036,0.100319996,-0.421829998,-0.828740001,-0.659850001,-0.0065781,0.797940016,-0.274439991,0.551769972,0.835089982,-0.842840016,1.692299962,0.140039995,-0.463340014,-0.930429995,-0.059431002,-1.135499954,0.630779982,0.665509999,0.909810007
soldier,-0.058880001,-0.114330001,0.091459997,-0.778940022,1.950600028,0.218559995,-0.139899999,1.074100018,0.033427998,-1.533699989,0.282160014,-0.767849982,-0.139840007,0.192399994,0.192249998,-1.037199974,-0.483610004,0.567099988,-0.879310012,0.598969996,-0.667219996,1.227399945,-0.190129995,0.00091553,0.047809001,-1.953500032,-0.583519995,-0.345640004,0.611329973,0.53075999,1.878600001,-0.884639978,-0.795120001,0.269859999,0.456809998,1.119199991,0.21999,-0.963349998,-0.19483,-0.224559993,0.385939986,0.099907003,0.301910013,-0.846750021,1.072900057,-0.901989996,-0.183620006,-0.192430004,-0.044231001,-0.125190005
teacher,-0.949209988,0.983759999,-0.575020015,-1.382200003,0.784169972,0.328429997,-0.436509997,0.202779993,-0.268559992,0.290969998,0.215519994,-0.12359,0.181649998,-0.204659998,0.28222999,-0.817920029,-0.431239992,1.003499985,0.519900024,0.513580024,0.229489997,1.3671,-0.494049996,0.705990016,0.630630016,-1.708600044,-0.070776999,-1.087599993,-0.800499976,0.051295001,2.342299938,-0.291559994,-0.239999995,-0.583389997,0.764330029,0.464980006,0.197420001,0.67335999,1.105000019,0.137769997,-0.183650002,0.39083001,-0.226339996,0.094743997,0.452030003,-0.629109979,0.528270006,-0.261739999,0.020753,0.903800011
prosecutor,0.429500014,-0.429549992,-0.790120006,0.515299976,0.578729987,-0.0097183,1.024500012,1.075299978,-0.105230004,-0.837629974,-0.554669976,-0.035810001,-1.262599945,-0.232979998,0.964110017,-0.622200012,0.065531,-0.741859972,0.35334,-0.258340001,0.313650012,0.477169991,-0.066156,0.241040006,-0.866140008,-2.57310009,0.36045,0.359589994,-1.460899949,-0.70589,0.866240025,-1.103800058,-0.574090004,-1.339699984,0.145879999,-0.234520003,0.494989991,0.137089998,0.587159991,0.266290009,0.310689986,1.720800042,0.560280025,-0.739600003,0.163440004,-0.547429979,-0.384259999,0.65674001,0.656140029,0.784640014
saint,1.27639997,2.399399996,-1.100900054,-1.542099953,0.501860023,-0.275130004,-0.846220016,0.174600005,-0.188470006,-0.041907001,0.518779993,0.611129999,-0.174860001,-0.928460002,-0.324519992,-0.40843001,-0.19901,-1.128800035,-0.851100028,0.55934,-0.926680028,-0.187130004,-0.945479989,0.454259992,-0.443569988,-0.796609998,-0.947629988,-0.209480003,-0.842149973,-0.0076193,1.382200003,0.62349999,0.266889989,-0.318980008,0.021834999,-0.25068,0.654120028,0.21796,0.627749979,0.975979984,0.826780021,0.446150005,-0.022523001,-0.924870014,0.017586,1.253000021,-0.832080007,-1.42750001,0.392199993,-0.622900009
politician,-1.348899961,-0.206039995,-0.320459992,-0.670970023,1.155300021,1.024299979,-0.43156001,0.437720001,-1.471500039,-0.421420008,-0.044698,-0.310799986,0.356970012,0.670019984,-0.256929994,-0.790170014,0.463939995,0.563979983,-0.334749997,0.812359989,-0.135210007,0.646130025,0.060851999,0.986109972,0.267509997,-2.514600039,-0.245370001,-0.885999978,-0.496859998,1.943300009,1.494899988,-1.065000057,-1.196499944,-0.228210002,0.260129988,-0.328700006,-0.750240028,0.359210014,0.210840002,-0.366899997,0.036127999,1.223899961,-0.59315002,-0.356669992,-0.409240007,0.058038,-1.476300001,-0.452969998,1.389000058,0.089199997
bishop,0.476049989,0.836059988,-1.17900002,-1.15320003,1.326200008,0.390109986,-0.223869994,0.289979994,-0.916599989,-0.55381,0.295560002,0.657890022,-0.388529986,-1.446799994,0.363409996,0.040801998,-0.692030013,-0.506760001,-0.57960999,0.79211998,-0.739650011,-0.026766,-0.511669993,0.839100003,-0.613089979,-1.472800016,1.030799985,-0.47578001,-1.379899979,0.104120001,0.889310002,-0.514460027,-0.184259996,-1.108100057,0.201370001,-0.712960005,0.621029973,-0.219029993,0.343050003,0.622650027,0.352129996,0.884970009,-1.011800051,0.139349997,-0.719869971,1.121700048,-0.642939985,-0.766849995,-0.467790008,-0.137799993
actress,-0.502810001,1.360200047,-0.795669973,0.179780006,0.303259999,2.003400087,-0.291830003,-0.133139998,-0.228330001,0.746039987,0.29479,0.058113001,0.080724001,0.602620006,1.389700055,-0.492049992,-0.120200001,0.461840004,-0.252819985,0.605679989,0.102399997,2.163899899,0.528410017,0.733820021,0.682829976,-1.200000048,-0.59849,-0.159260005,-1.114500046,-0.494080007,1.149199963,0.232800007,0.850709975,-0.289730012,0.607320011,-0.051936001,-0.146170005,0.349570006,-0.506120026,-1.568199992,-0.078745,1.737900019,0.465629995,-1.991000056,-0.690530002,-1.060899973,-0.37481001,-1.713000059,-0.146779999,0.948230028
principal,0.12325,1.167700052,-0.449470013,0.129329994,0.913370013,0.411240011,-0.27184999,0.205750003,-0.19833,-0.151759997,0.208749995,0.876559973,-0.263220012,-0.086635999,-0.449820012,-0.337630004,0.449600011,0.387890011,0.341259986,-0.086453997,0.40952,-0.272969991,-0.571380019,0.309289992,-0.493669987,-0.765709996,0.116530001,-0.714420021,-0.609640002,0.421510011,2.480900049,-0.619930029,0.486009985,-0.722050011,0.762340009,-0.019591,-0.059544999,0.140709996,0.482239991,0.307960004,-0.245920002,0.177619994,-0.213049993,-0.154170007,-0.27274999,-0.474849999,-0.447340012,-0.063629001,-0.022647001,0.977289975
journalist,-0.932940006,0.307850003,-0.032540001,-0.219099998,0.570599973,0.226569995,-1.165300012,0.338200003,0.130989999,-0.035337001,0.173419997,-0.158109993,-0.454109997,0.67385,1.090499997,-1.428500056,-0.140430003,0.196099997,-0.23364,1.034399986,0.407759994,1.893700004,0.312830001,1.072299957,0.615369976,-1.988000035,-0.280250013,-0.673160017,-0.509859979,0.880720019,1.295400023,-1.480700016,-0.112499997,-0.711049974,-0.83148998,0.248989999,-0.477070004,-0.181290001,0.044711001,0.026008001,1.228099942,1.231400013,0.324010015,-0.703279972,0.097732998,-0.779990017,-0.809019983,0.075491004,0.272830009,0.219070002
envoy,0.659569979,1.386700034,-0.282689989,-0.015299,0.545329988,-0.771229982,0.052381001,0.813530028,0.322250009,-1.333299994,-0.085661002,0.503199995,-0.770500004,0.577759981,0.625079989,0.299739987,0.546039999,-0.529320002,1.008599997,0.151419997,0.13944,0.872210026,0.154469997,-0.303570002,0.47319001,-1.558300018,1.145799994,0.25176999,-1.346699953,0.79193002,1.309499979,-0.559449971,-1.503900051,0.083774999,0.428750008,-0.565249979,-0.558990002,-0.100079998,-1.231699944,-0.043956999,-0.179189995,1.44509995,0.419530004,-2.846299887,0.652119994,0.061268002,0.449470013,1.150500059,-1.219400048,0.120119996
economist,-0.814199984,0.336919993,0.336019993,-0.265749991,0.580730021,-0.845969975,-1.021499991,-0.894129992,-0.996640027,-0.207159996,0.507960021,0.773109972,-0.776359975,0.155310005,-0.018045001,0.559239984,1.116400003,-0.186440006,-0.259860009,0.37944001,0.292869985,0.109870002,-0.815760016,-0.158930004,0.022609999,-1.076500058,-0.407510012,-0.45341,-2.051800013,1.194200039,1.271700025,-1.008200049,1.394099951,-0.415829986,-0.415850013,-1.621199965,-1.227100015,-0.291960001,1.972200036,-0.46024999,-0.39763999,0.604550004,0.213599995,-0.70818001,0.928799987,-0.458909988,-0.048955001,1.078699946,0.633249998,1.695299983
worker,-0.306959987,0.072844997,0.199269995,-0.567229986,0.675960004,0.436179996,-0.995239973,0.541360021,0.882089972,-0.479330003,0.396580011,-0.631829977,0.446920007,0.031063,0.442609996,-0.832780004,-0.431690007,0.846379995,0.947480023,-0.230979994,-0.017498,0.637650013,-1.174600005,0.195439994,0.0253,-1.574000001,0.281489998,-0.341049999,0.307729989,0.497539997,2.343199968,-0.309439987,-0.275819987,0.188769996,-0.134169996,0.265940011,0.17859,-0.186790004,1.367799997,0.303959996,-0.394190013,0.095567003,0.193719998,-0.091851003,0.744979978,-1.132200003,-0.87440002,-0.117940001,0.50880003,0.518750012
dean,-0.883549988,0.501269996,0.259270012,-0.847859979,0.092739999,0.028791999,-0.939419985,-0.081670001,-0.147929996,-0.132589996,-0.47231999,0.717329979,-0.566910028,-0.528869987,-0.390769988,0.038805,0.055176001,-0.051518999,-0.472710013,-0.021399001,0.135639995,0.511139989,0.499619991,-0.308670014,-0.144390002,-1.448699951,0.31378001,-0.197860003,-1.213000059,-0.026807001,1.281299949,-0.376729995,0.566129982,-1.213099957,-0.199670002,-0.459120005,-0.373730004,0.166700006,1.211099982,-0.557430029,-0.150769994,0.834100008,-1.031999946,-0.277200013,-0.052152,0.626730025,-0.126430005,-0.507740021,-0.483929992,0.957560003
diplomat,-0.020959999,0.66358,-0.527310014,-0.521669984,1.192299962,-0.609200001,-0.184640005,0.730539978,-0.39278999,-0.916079998,0.551649988,0.181850001,-0.056104001,0.597519994,0.81497997,-0.144869998,0.085476004,0.043701999,0.194279999,0.444730014,0.16573,1.250800014,-0.128999993,0.32881999,0.509440005,-2.140500069,0.43434,-0.115599997,-0.836099982,1.360900044,1.188899994,-1.026100039,-0.786870003,-0.188659996,0.51989001,-0.520609975,-0.539089978,0.30704999,-0.746230006,0.191200003,0.321009994,1.024000049,1.317999959,-1.40199995,0.586350024,-0.172910005,-0.33081001,1.247599959,-0.133469999,-0.156470001
employee,0.236660004,0.189140007,0.405099988,0.084120996,0.794849992,0.243619993,-0.758819997,0.390810013,0.67730999,-0.600950003,0.367740005,0.030936999,-0.254869998,-0.370629996,0.575139999,-0.397480011,-0.922770023,0.772130013,0.696389973,-0.447809994,0.518019974,0.500760019,-0.954029977,0.182610005,-0.910809994,-1.544800043,0.059238002,-0.256460011,0.091397002,0.139019996,2.034699917,-0.0022858,0.130050004,-0.211610004,0.196150005,-0.0024776,0.077974997,-0.402179986,1.037199974,-0.153819993,0.176039994,-0.233919993,-0.021668,0.796389997,-0.111230001,-1.408400059,-0.681469977,0.845080018,0.225879997,1.14230001
boss,0.623769999,-0.094498001,-0.367190003,0.153569996,0.666790009,-0.231230006,-0.432610005,0.68283999,-1.171499968,-0.127269998,0.013227,1.578299999,-1.75880003,-0.185619995,0.796389997,-0.430810004,0.448540002,0.944369972,-0.152280003,-0.379839987,-0.468780011,-0.069880001,-0.388080001,0.663349986,-0.882640004,-1.802800059,0.422610015,0.438659996,-0.373789996,0.179529995,1.372699976,0.093216002,-0.089934997,-0.0057132,-0.063064002,0.448559999,-0.080216996,-0.408329993,0.214520007,-1.259500027,0.462089986,0.563790023,-1.07280004,-0.161669999,0.854460001,-0.152549997,-0.888809979,0.064066,0.870140016,0.396400005
lieutenant,-0.459899992,-0.305409998,-0.005645,-0.389780015,1.229699969,-0.562600017,-0.407359987,0.948740005,-0.296420008,-2.405999899,-0.029098,0.812659979,-0.262659997,-0.34149,-0.563910007,-1.023599982,-0.108999997,0.162459999,-1.038300037,0.174999997,-0.260410011,-0.258879989,0.88914001,-0.590830028,-0.431910008,-1.518300056,-0.011077,-0.799920022,-0.250349998,1.251199961,1.15260005,-0.884920001,-0.886979997,-0.517729998,1.212800026,0.391530007,0.139620006,0.30388999,-0.135169998,-9.77E-05,-0.139750004,0.867410004,-0.588660002,-1.351699948,-0.4815,-0.701870024,-0.658590019,-0.761120021,0.356370002,1.271100044
midfielder,-0.191300005,-0.037804998,-0.248209998,-0.399179995,0.38429001,-0.493189991,-0.804030001,0.61224997,-0.468679994,1.201300025,1.584100008,0.83585,-1.503399968,0.43689999,0.176349998,-0.813510001,0.616710007,-0.722389996,-1.291200042,0.68076998,-1.565999985,0.265179992,-0.732659996,0.444810003,-0.256550014,-1.045300007,2.308700085,0.227259994,-0.920780003,-0.217789993,1.681599975,0.431879997,0.555270016,0.405609995,0.077317998,1.107200027,0.119549997,1.228199959,0.096377999,-0.592100024,1.667000055,1.719300032,-0.629679978,-1.013499975,0.011842,-0.158419997,0.690119982,0.369610012,-0.033666998,-0.539390028
chancellor,0.322849989,0.826120019,0.090389997,-1.035599947,-0.077376999,0.384460002,0.104719996,0.31814,-1.591699958,-1.603600025,-0.312889993,0.254339993,-0.70697999,-0.175479993,-0.144539997,0.40200001,-0.303070009,-0.073948003,0.462779999,0.254779994,0.262719989,-0.612370014,-0.657029986,-0.31942001,0.450500011,-2.174299955,0.220599994,-0.226889998,-2.174000025,0.927619994,1.00090003,0.702639997,-0.344940007,-0.35405001,-0.784990013,-0.817520022,0.037889998,1.146199942,0.105810001,-0.536450028,0.028995,0.39952001,-0.554019988,-0.581080019,-0.0036286,0.11118,-0.443859994,0.262699991,0.170369998,0.621869981
citizen,-0.857670009,0.337790012,-0.018793,-0.151079997,1.158699989,0.203490004,-0.264860004,0.370869994,0.403290004,-0.073606998,0.730350018,-0.0691,0.683790028,0.36699,0.456710011,-0.689220011,0.076172002,0.344060004,0.097231001,0.750109971,0.059842002,0.810609996,-0.177660003,0.780860007,-0.101190001,-2.239900112,-0.202450007,-1.128299952,-0.076996997,0.45273,1.42750001,-0.368779987,-0.90425998,-0.769599974,-0.167070001,-0.478670001,-0.074143,-0.246700004,-0.273409992,-0.263090014,0.338589996,0.128020003,1.108299971,-0.0007791,-0.277819991,-0.604260027,-1.239500046,0.028605999,0.394800007,0.343270004
aide,0.18175,1.080899954,0.724789977,0.032147001,0.821529984,0.057525001,-0.151319996,0.59434998,-0.655929983,-1.156299949,-1.307999969,-0.016639,-0.828859985,0.372649997,0.100309998,-0.322490007,-0.386889994,-0.191410005,1.194900036,0.305970013,-0.10503,0.903559983,0.253930002,-0.361930013,-0.261839986,-2.097800016,0.750769973,0.358289987,-0.531499982,0.994480014,1.036800027,-0.699119985,-1.116899967,-0.540449977,0.042422999,0.014503,-0.101170003,0.322649986,0.191860005,0.0016948,0.199070007,1.255200028,-0.852320015,-0.259790003,0.40011999,-1.019299984,-0.99545002,0.530879974,0.296429992,0.967819989
comic,-0.429540008,0.095675997,-0.992519975,-0.150120005,0.503790021,0.994790018,-0.721589983,-1.040599942,-0.308690012,0.798309982,-0.5722,0.947960019,-0.43573001,0.654990017,1.055999994,-1.233700037,0.224509999,0.488020003,-0.910899997,-0.082679003,0.798829973,0.337229997,0.393519998,0.823390007,0.300089985,-0.385690004,-1.68719995,-0.017027,0.586690009,0.030424999,1.827200055,-0.542590022,0.604229987,-0.414139986,-0.541530013,1.151900053,-0.57852,-0.399960011,-1.187299967,-0.900900006,0.90151,0.736450016,-1.024099946,-0.611299992,-0.279009998,-0.003857,0.399069995,-0.183129996,-0.216419995,0.687370002
colonel,-0.245079994,-0.123170003,-0.109379999,-0.452470005,1.429700017,-0.819999993,-0.23838,0.788630009,-0.40715,-1.899799943,0.135969996,0.891950011,-0.621569991,-0.773739994,-0.223269999,-1.028699994,0.084587999,0.036130998,-0.837069988,0.182720006,-0.355969995,0.064075999,0.411790013,-0.902559996,-0.43524,-1.312399983,0.081192002,-0.894010007,-0.016461,1.106999993,0.902400017,-1.208799958,-0.926880002,-0.242630005,0.788540006,0.517009974,0.097358003,0.132909998,0.151240006,0.68028003,0.494580001,1.003200054,-0.467709988,-1.308699965,0.237330005,-0.730960011,-0.541480005,-0.71232003,-0.140809998,0.929560006
priest,0.396100014,0.525290012,-1.354400039,-1.760100007,1.548599958,0.499799997,-0.437139988,0.29076001,-0.70946002,0.089865997,0.31378001,0.695420027,0.184279993,-0.292400002,0.866280019,-0.887989998,-1.065700054,-0.136030003,-0.119860001,0.997080028,-0.877979994,0.606549978,-0.408389986,0.930230021,-0.547879994,-1.603600025,0.821370006,-0.521459997,-0.643360019,0.077670999,1.315199971,-0.859430015,-0.598739982,-0.487179995,-0.295359999,0.206,0.340730011,-0.923179984,0.793139994,0.448769987,0.076433003,0.481579989,-0.643429995,0.688350022,0.303030014,0.153659999,-0.675679982,-0.850399971,-0.115309998,-0.517040014
businessman,-0.249160007,0.125660002,0.227829993,0.46142,1.000200033,0.470560014,-1.470800042,0.447750002,-0.77384001,0.493239999,-0.113519996,0.0085111,0.201299995,0.173749998,0.383089989,-0.478060007,0.548309982,0.856400013,-0.228799999,0.944440007,0.537859976,0.722609997,-0.63714999,0.444539994,-0.499040008,-2.29489994,0.55351001,-0.747600019,-0.389800012,0.789929986,0.815900028,-1.029099941,-0.292250007,0.0018842,0.65042001,-0.338779986,-1.078799963,0.688449979,0.401930004,-0.297199994,0.141790003,1.176900029,-0.0033762,-0.171250001,0.223820001,-0.63094002,-1.900300026,-0.351399988,0.917150021,0.22428
baker,-0.528039992,0.772199988,0.028723,0.206359997,0.490090013,0.387039989,-1.197299957,0.294019997,-0.178870007,-0.584850013,-0.513639987,0.535809994,-0.631590009,-0.330579996,0.073753998,0.013677,0.508750021,-0.397439986,-0.239549994,-0.330570012,0.231600001,0.692359984,0.389420003,-0.206039995,-0.031757001,-0.788230002,-0.147310004,-0.226889998,0.044103,-0.137590006,1.201699972,-0.827149987,-0.212050006,-0.343010008,0.531000018,-0.466219991,0.054947998,0.362940013,0.890619993,0.111699998,0.12133,0.640370011,-0.50503999,-0.599300027,0.166209996,0.157049999,-0.516969979,-0.426400006,-0.416570008,1.298799992
goalkeeper,-1.103399992,-0.432920009,0.531859994,-0.245330006,-0.256300002,-0.988430023,-1.098099947,0.615999997,-0.233889997,-0.341930002,0.293579996,1.098099947,-1.454399943,0.231910005,0.135619998,-1.093700051,1.345700026,-1.31280005,-1.190700054,0.502260029,-1.592599988,-0.431279987,-0.667349994,-0.072760001,0.725019991,-1.685799956,0.825460017,0.523000002,-0.343160003,-0.794170022,0.904929996,0.19021,1.046900034,0.098151997,-0.515600026,1.687899947,0.350580007,1.514700055,0.079080999,-0.677290022,1.507300019,1.233199954,0.640309989,-0.635299981,-0.449209988,-0.024938,-0.136879995,-0.146070004,1.570299983,-1.258299947
architect,0.375779986,0.692749977,-0.332839996,-0.711910009,0.297630012,0.124070004,-1.478800058,-0.725279987,-1.588999987,-0.062871002,-0.089139998,0.441700011,-0.686309993,0.197400004,-0.332980007,-0.330570012,0.85532999,0.342579991,0.149910003,0.242379993,0.484919995,0.084238999,-2.270999908,-0.540000021,0.301730007,-0.902840018,-0.437040001,-1.001000047,-0.628000021,0.716970026,1.12559998,-1.771000028,-0.443549991,-1.016100049,0.519119978,0.347229987,0.390599996,1.487599969,0.125009999,0.5176,0.33563,0.191210002,0.017863,-0.792980015,-0.065521002,0.210730001,-0.850750029,-0.689909995,0.079466999,0.466509998
critic,-1.034800053,0.779879987,-0.233899996,-0.467009991,-0.59296,0.031230999,-0.579699993,-0.138170004,-0.427240014,1.021999955,-0.72457999,0.369650006,-0.112230003,0.607200027,0.319499999,-0.75612998,0.474530011,-0.548919976,0.022812,0.576839983,-0.090763003,0.428130001,-0.219190001,0.194619998,0.592079997,-1.922299981,-0.703960001,-0.110119998,-0.998660028,1.18809998,1.38349998,-1.683799982,0.819760025,-0.932259977,-1.189499974,-0.324239999,-0.248070002,0.359340012,-0.230890006,-0.269510001,1.235599995,1.693799973,-0.507300019,-0.187920004,0.245619997,0.436870009,-0.900740027,0.278329998,-0.538950026,1.021700025
consultant,-0.464130014,0.326189995,-0.310030013,0.570729971,-0.005063,0.101319999,-1.605000019,-0.541949987,0.413249999,-0.565550029,-0.356440008,0.351980001,-0.514590025,0.242170006,-0.054244999,-0.483649999,0.351909995,0.648689985,0.345050007,-0.025982,0.835619986,0.884540021,-0.842040002,0.0093599,-0.41031,-1.211500049,-0.28876999,-0.827449977,-0.508059978,0.611590028,1.462800026,-0.449400008,0.024408,-0.99515003,-0.166850001,0.064838998,-0.982240021,0.802110016,1.375499964,-0.024594,0.219469994,0.658100009,-0.402350008,0.323839992,0.288020015,-0.563000023,-0.410270005,0.454019994,0.061730001,1.901200056
scientist,-0.157399997,0.609650016,0.330069989,0.099683002,0.485619992,0.047823999,-0.738789976,-0.53599,0.324180007,0.127609998,0.596570015,0.400189996,0.042289998,0.679149985,0.17035,-0.0092601,0.511600018,0.878180027,-0.699020028,0.894659996,-0.12511,0.829330027,0.12066,-0.271919996,1.060899973,-2.231300116,-0.523980021,-0.881160021,-1.006700039,0.659380019,0.926739991,-1.819599986,-0.711820006,-1.483800054,-0.242500007,-0.070873,-0.661679983,0.932680011,1.192299962,0.107649997,0.395830005,0.601670027,0.21796,0.021389,1.281299949,-0.0055883,0.258459985,0.452329993,-0.115139998,0.540430009
poet,-0.842230022,1.143100023,-0.933149993,-1.264500022,0.953350008,0.46261999,-0.863550007,0.243709996,-1.21389997,1.111899972,-0.200230002,0.512759984,0.868879974,-0.285479993,0.531880021,-1.512400031,0.361889988,-0.179930001,-0.118199997,1.187899947,-0.067050003,0.607980013,-0.215550005,0.311659992,1.868299961,-1.288400054,-1.321099997,-1.131700039,-0.935930014,0.64240998,1.177600026,-1.832800031,0.203590006,0.029546,-0.013924,0.123269998,-0.598659992,0.468439996,0.067203999,0.368829995,1.003100038,1.251000047,-0.543160021,-1.001199961,-0.100160003,0.233360007,-0.261489987,-0.360159993,-0.081247002,-0.467570007
footballer,-2.366899967,0.339419991,-1.317499995,-0.453370005,-0.312440008,0.29806,-1.094499946,0.276470006,-1.795400023,0.391030014,1.924299955,0.743690014,-0.071923003,-0.059397001,0.710950017,-0.663110018,0.672469974,1.326500058,-1.717900038,1.572399974,-1.022300005,0.392500013,0.227870002,1.382699966,-0.947570026,-0.972109973,1.199900031,-0.668799996,-0.69611001,1.062899947,1.362699986,-0.691969991,0.110129997,-0.063428,1.041800022,0.913609982,-0.053438,0.131150007,-0.260619998,-0.999189973,0.533949971,0.707459986,0.034813002,-1.043400049,-0.96025002,-0.194839999,-0.559819996,-0.221159995,0.318379998,-0.179049999
composer,-0.457679987,0.374969989,-1.095999956,-0.888570011,0.485740006,0.884530008,-0.863659978,0.577289999,-1.539999962,1.778599977,0.990140021,0.535749972,0.227689996,1.009199977,0.595690012,-1.205199957,0.325639993,0.080348998,-0.270240009,-0.036922999,0.563220024,0.606169999,-0.847100019,0.096072003,1.058300018,-0.217840001,-1.360999942,-1.495599985,-1.111999989,0.471489996,1.772300005,-1.561499953,0.48526001,-0.213620007,0.400559992,0.247380003,0.763580024,0.941609979,0.313769996,0.501800001,0.540560007,1.069100022,-0.555599988,-1.569599986,-0.177870005,0.454820007,-0.454959989,-0.715319991,-1.065000057,0.761070013
prisoner,0.40237999,0.277969986,-0.080096997,-0.64892,0.822719991,-0.024605,0.513059974,1.049100041,0.175339997,-0.476819992,-0.165969998,-0.02324,-0.063280001,0.671199977,0.734340012,-0.679310024,-0.163599998,-0.515219986,0.191630006,0.969900012,-0.163570002,0.715139985,0.508509994,-0.047285002,-0.821720004,-1.636500001,0.346509993,-0.403189987,0.357820004,0.722679973,1.57130003,-1.07280004,-0.815779984,-0.091025002,-0.114919998,0.521839976,0.315019995,-0.799120009,-0.391990006,-0.437079996,-0.090971,-0.120410003,0.67148,0.159930006,0.304329991,-1.247699976,-0.334140003,-0.423649997,-0.746640027,-0.272419989
historian,-0.862559974,0.784770012,-0.887210011,-0.235540003,0.572030008,0.026686,-1.046800017,-0.316830009,-0.864629984,-0.523259997,-0.015389,0.592329979,-0.036187999,-0.292349994,0.56230998,-0.880869985,0.628480017,-0.19551,-0.337480009,0.803849995,-0.256060004,0.288919985,-0.764859974,-0.104879998,1.002599955,-1.445899963,-1.218700051,-1.235200047,-1.047899961,0.970860004,0.836189985,-2.218499899,0.380849987,-1.017099977,-0.47093001,0.0052403,-0.626399994,0.502080023,0.291110009,0.684539974,0.878809988,0.906509995,0.260630012,-0.206190005,0.09223,0.231920004,-0.268440008,0.201739997,-0.484369993,0.408740014
inspector,0.082662001,-0.672789991,-0.105109997,-0.103940003,0.120920002,-0.626320004,-0.189359993,-0.060803,0.972299993,-1.99119997,-0.171159998,1.237200022,-1.159700036,0.018002,0.776950002,-0.34593001,0.039724,0.445690006,0.371659994,0.043710999,0.512530029,0.214469999,0.155860007,-0.28459999,-0.217629999,-1.476300001,-0.054804999,0.200969994,-0.735800028,0.204300001,0.860220015,-1.332599998,-0.213479996,-0.922919989,0.590189993,1.279999971,0.772329986,0.0063296,0.613349974,0.347530007,-0.153390005,1.007799983,0.393830001,-0.901650012,0.041505001,-0.159250006,-0.085422002,0.90151,0.735669971,0.649500012
substitute,-0.252719998,-0.409619987,-0.347090006,-0.582099974,0.806779981,0.225370005,-0.703170002,0.403800011,0.17825,1.034999967,0.636240005,0.462839991,0.032329001,0.19077,0.134169996,-0.788749993,0.764410019,-0.739950001,-0.43077001,-0.137370005,-0.438690007,-0.517759979,0.412090003,-0.019788999,-0.239989996,-0.532620013,1.350900054,0.172230005,0.145789996,-0.276659995,2.021399975,0.284069985,-0.527800024,0.214379996,0.458229989,0.95502001,0.481810004,1.615300059,0.565330029,-0.592980027,1.123700023,0.704190016,-0.874610007,-0.701870024,-0.143649995,0.595499992,0.130119994,0.300139993,0.678189993,-0.033209998
musician,-1.35650003,0.661409974,-0.461930007,-0.564949989,0.086879998,0.79768002,-1.483199954,0.61976999,-0.704750001,1.583899975,1.085999966,0.430449992,0.402550012,0.851729989,0.279449999,-0.825380027,0.699850023,0.58247,-0.228249997,0.081203997,-0.246749997,1.315500021,-0.131669998,0.825900018,0.565190017,-0.315180004,-0.667659998,-1.004500031,-0.450109988,0.32633999,1.876700044,-1.287500024,0.551240027,0.11902,0.591300011,0.197029993,0.397109985,-0.045701999,0.431659997,-0.042202,0.335759997,0.850889981,-0.665359974,-1.029500008,0.33217001,-0.315100014,-0.454640001,-1.010699987,-0.986989975,0.811039984
advocate,-0.905680001,0.045471001,-0.662140012,-0.924910009,0.126800001,0.503449976,0.016535999,-0.208539993,0.692820013,0.366809994,-0.109279998,-0.039085001,0.274949998,-0.091972001,-0.788720012,-0.567680001,0.588959992,-0.082603,0.756030023,0.19777,-0.149179995,0.332720011,-0.878880024,-0.00028276,0.164539993,-1.837800026,0.257050008,-0.907440007,-0.335029989,1.07190001,1.821400046,-0.302260011,-0.689540029,-0.926919997,-0.859480023,-0.664529979,-0.126839995,0.085637003,-0.183280006,-0.146200001,0.060849,0.273259997,-0.287259996,0.32396999,0.498250008,-0.16415,-0.950370014,-0.276479989,0.014303,1.067199945
columnist,-1.380800009,1.717900038,0.130510002,0.617039979,0.032901,-0.51315999,-1.423599958,-0.337819993,-0.15907,-0.600049973,-0.826189995,0.380089998,-0.245890006,0.365379989,0.85303998,-0.481400013,-0.613569975,-0.47330001,0.350710005,0.775099993,-0.032926999,0.402040005,0.455410004,1.178799987,0.245890006,-1.239199996,-0.200529993,0.257510006,0.156959996,0.619050026,0.835759997,-1.030200005,0.756829977,-0.719829977,-1.743100047,0.070522003,-0.748570025,0.28332001,0.856660008,0.391559988,1.976999998,1.42869997,-0.723909974,0.411350012,0.017111,-0.063527003,-0.520690024,0.16832,-0.063305996,1.541800022
farmer,-1.015799999,-0.285400003,-0.224059999,-0.367949992,0.846679986,0.748279989,-1.50940001,0.119670004,0.100120001,-0.360390007,-0.091821,-0.205190003,1.025900006,-0.619050026,0.460099995,-0.338479996,0.396259993,0.639330029,0.442420006,0.308840007,-0.176349998,-0.045024998,-0.097802997,0.477100015,0.494019985,-1.296800017,0.124899998,-0.534229994,0.464679986,0.378360003,1.602900028,-1.133000016,-0.276369989,0.786629975,0.414499998,0.12545,-0.818419993,0.399179995,1.201599956,-0.020055,-0.563260019,0.446579993,-0.503520012,-0.386700004,1.021199942,-0.350380003,-0.903240025,-0.732640028,0.545270026,0.410789996
archbishop,1.024000049,1.047999978,-0.877979994,-1.389899969,1.10710001,-0.24707,0.039352998,-0.159639999,-1.232900023,-0.081208996,0.479860008,0.512660027,-0.61206001,-0.793860018,0.879840016,0.060658999,-0.648519993,-0.703559995,-0.585640013,0.982519984,-0.704859972,0.168489993,-1.044800043,0.431360006,-0.652800024,-1.302600026,0.99229002,-0.330430001,-1.997699976,0.367659986,0.074988,0.185959995,-0.242630005,-1.51970005,-0.177289993,-0.679229975,0.764750004,-0.372229993,0.144250005,0.768400013,-0.197129995,1.575299978,-0.745630026,-0.244479999,-0.749310017,1.202999949,-0.794539988,-0.487190008,-0.20318,-0.257910013
lawmaker,-0.88282001,0.175160006,0.463290006,0.067755997,0.597930014,0.952660024,0.242730007,0.695050001,-0.468120009,-0.599120021,-0.531700015,-0.682600021,0.074353002,1.082399964,-0.452699989,-0.42118001,0.452149987,-0.432319999,0.768570006,0.379180014,-0.196810007,0.323170006,-0.022789,0.365079999,-0.034809001,-2.066299915,0.637009978,-0.141230002,-1.221199989,0.709490001,0.983519971,-0.598309994,-0.758419991,0.157199994,-0.382609993,-0.736419976,-0.011665,-0.321179986,0.305530012,0.231999993,-0.032269999,1.175999999,-0.628199995,-0.158859998,0.716019988,-0.938310027,-1.386100054,0.235569999,1.146299958,0.37913999
administrator,-0.139269993,-0.0041954,-0.232859999,-0.175669998,0.19393,-0.588100016,-0.445329994,-0.205799997,0.732119977,-1.542700052,0.398799986,0.635160029,-0.334490001,0.043042999,0.501820028,0.155959994,0.187910005,0.832199991,0.797450006,0.524770021,-0.512059987,0.602050006,-1.054100037,-0.054715,-0.155719995,-1.407400012,0.461479992,-0.195390001,-1.151900053,0.831089973,1.195799947,-0.981949985,-0.321260005,-0.961359978,0.109360002,0.753859997,0.547900021,0.300749987,0.910130024,0.083089001,-0.068283997,1.111999989,0.278649986,-0.375059992,-1.261899948,0.057193998,-0.522300005,0.457969993,-0.208240002,1.259500027
athlete,-1.585299969,1.382400036,-0.307040006,0.330440015,0.486550003,0.452340007,-0.069578998,0.229049996,0.739459991,0.36195001,1.305299997,-0.307419986,0.03968,0.377090007,1.403900027,-0.281650007,0.584789991,1.555299997,-0.920210004,-0.429560006,-1.176200032,0.562780023,-0.178859994,0.524510026,0.600409985,-1.74119997,-0.110990003,-0.647369981,-0.507399976,0.390020013,1.328699946,0.343950003,-0.316929996,-0.59483999,0.366340011,0.331770003,0.491239995,1.342700005,-0.605690002,-0.73597002,-0.117919996,0.069227003,0.353920013,0.852389991,0.215230003,-0.897989988,-0.065416001,-0.010681,-0.066724002,0.1998
correspondent,-0.518050015,0.835229993,0.297149986,0.382530004,0.096956998,-1.116799951,-0.869449973,0.294059992,0.474739999,-1.406700015,-0.111089997,-0.106640004,-0.843379974,0.513409972,0.486519992,-0.171000004,-0.622049987,-0.036765002,-0.269989997,1.085100055,0.920859993,1.779000044,0.872470021,0.778819978,0.241699994,-0.829850018,-0.522899985,0.154379994,-0.615629971,0.822660029,1.11590004,-0.463649988,1.203099966,-0.812420011,-0.978269994,0.393299997,-0.575950027,-0.224859998,0.194049999,0.621949971,1.123399973,1.227200031,0.137689993,-1.069300056,0.022038,-0.569779992,-0.595430017,0.052074999,-0.264999986,0.658070028
dad,-0.602479994,0.497689992,0.31299001,-0.707409978,1.039299965,0.112779997,-0.850740016,0.34573999,-0.394450009,-0.057199001,-0.300069988,0.943220019,-0.435290009,0.0070842,1.045600057,0.302439988,-0.277539998,1.051499963,0.471280009,0.168149993,-0.473879993,1.180299997,0.211280003,0.768970013,1.169100046,-1.661200047,-0.738789976,-0.024401,1.065400004,-0.352239996,1.276499987,0.625450015,-0.293009996,0.798709989,0.339929998,0.616729975,0.038061,-0.021684,0.473239988,-0.462630004,-0.216749996,0.421139985,-0.748189986,0.119060002,0.605880022,-0.11417,-0.099003002,-0.921360016,0.091691002,0.944100022
butler,-0.726029992,0.668919981,-0.309430003,-0.459699988,0.512610018,0.35808,-0.897669971,0.500259995,0.083962001,-0.786090016,-0.427489996,0.671270013,-1.000200033,-0.575519979,0.097197004,0.059687998,0.245440006,-0.480980009,-0.033156,-0.022088001,0.215090007,0.743969977,0.296030015,-0.260690004,-0.227080002,-0.945219994,-0.108319998,-0.062024001,0.134869993,-0.291729987,0.73368001,-0.636449993,0.0034068,-0.614120007,0.989139974,0.037521999,0.365819991,0.237470001,0.280259997,0.0081646,0.124360003,0.496879995,-0.089268997,-0.900960028,0.064303003,0.47003001,-0.311930001,0.131209999,-0.321310014,0.591830015
physician,0.202989995,0.152759999,-0.580380023,-0.931729972,0.315429986,0.545859993,-0.856750011,0.503970027,0.294070005,-0.356279999,0.609790027,0.490339994,0.738290012,0.190650001,0.095218003,-0.218360007,-0.771979988,0.055666,0.072694004,0.643809974,-0.191080004,0.493900001,-0.409069985,0.247400001,-0.026167,-1.735599995,-0.328299999,-1.474599957,-0.571889997,0.882049978,1.251999974,-0.567780018,-0.555159986,-0.52451998,0.550090015,0.076747999,0.423260003,1.030200005,1.660099983,0.370849997,0.581690013,0.470880002,-0.033071,1.131000042,0.468349993,0.087397002,-0.324119985,0.203700006,0.015427,1.264199972
scholar,-0.996850014,1.116700053,-0.929430008,-0.868520021,1.10800004,-0.337760001,-0.491959989,-0.568180025,-0.455729991,0.206619993,-0.100390002,0.437640011,0.404830009,0.062974997,0.0035354,-0.626219988,0.402240008,0.075727001,-0.131439999,1.38440001,0.120329998,0.765200019,-0.34630999,0.01361,0.956290007,-1.820299983,-0.638209999,-1.49849999,-1.883200049,0.569159985,1.075000048,-1.756000042,0.071878999,-0.692960024,0.069828004,-0.29339999,-0.649249971,0.717540026,0.066302001,0.456360012,0.330040008,0.47863999,0.179020002,0.338550001,0.404799998,0.061926,-0.003474,0.271569997,-0.57577002,0.057449002
painter,-0.383540004,0.708639979,-1.221899986,-1.144400001,1.194399953,0.100089997,-1.26699996,-0.662779987,-1.709900022,0.681819975,0.770770013,0.222550005,0.623920023,0.272619992,0.739769995,-0.864040017,0.278589994,-0.163540006,-0.72894001,0.299499989,0.269199997,0.203260005,-1.174499989,-0.006329,0.545930028,-0.577279985,-0.948109984,-0.795430005,-0.162900001,0.615209997,0.830940008,-1.637599945,0.074133001,-0.906409979,0.421550006,0.758270025,-0.299430013,1.771600008,0.316350013,0.069808997,0.927339971,0.691340029,0.644800007,-0.961369991,0.655489981,-0.141389996,-0.014532,-1.428300023,0.321680009,-0.178130001
researcher,-0.159150004,0.643679976,0.081400998,0.402500004,0.037806001,0.064515002,-0.627870023,-0.408380002,1.111600041,-0.128519997,0.567030013,0.105580002,0.030657999,0.011764,0.124009997,-0.270489991,-0.066165999,0.076020002,-0.100400001,1.042899966,0.042428002,0.744109988,0.513069987,-0.231519997,0.850099981,-1.513700008,-0.354119986,-1.180899978,-1.527500033,0.314509988,1.20570004,-0.982079983,0.401580006,-1.708999991,-0.71250999,-0.255820006,-0.608799994,0.921190023,1.457399964,0.135079995,0.31764999,0.398409992,0.425379992,-0.166299999,1.480599999,-0.472799987,0.422969997,0.180940002,0.041738,0.973770022
photographer,-0.72665,0.574549973,0.156959996,-0.075202003,0.440270007,-0.250779986,-1.468199968,-0.010386,0.277469993,-0.284949988,0.404769987,-0.470719993,-0.396380007,0.653819978,0.786270022,-0.968180001,-0.166580006,-0.143380001,-0.686730027,0.080035999,0.496760011,1.790699959,-0.367469996,0.320069999,0.664929986,-1.064100027,-0.962350011,-0.369309992,0.108170003,0.36263001,0.569310009,-0.992460012,0.258210003,-1.062899947,-0.363029987,0.99883002,-0.228909999,0.514339983,-0.011116,0.214149997,1.288200021,1.187100053,0.525870025,-0.766600013,0.620519996,-1.220399976,-0.287389994,-0.786670029,0.244670004,0.215670004
broker,0.148120001,0.237910002,0.044379,0.40101999,1.049299955,-0.169939995,-1.07980001,0.476539999,-0.269980013,-0.010806,-0.409200013,0.958410025,-0.727999985,-0.111170001,0.093923002,0.450450003,0.932309985,-0.536050022,0.710789979,-0.139640003,1.566499949,0.391889989,-0.615499973,0.358649999,-0.935180008,-0.630990028,0.707700014,-0.368189991,0.371719986,0.373629987,1.422799945,-0.779649973,-0.047653999,0.440710008,0.590390027,-0.761699975,-1.30369997,-0.89823997,0.42385,-0.715610027,0.288949996,-0.165769994,0.168489993,-0.240830004,0.121830001,-0.651679993,-0.094927996,1.067899942,0.085023999,0.526939988
negotiator,-0.411139995,0.38993001,-0.394439995,0.611429989,0.355670005,-0.684800029,0.095059998,1.099400043,-0.852919996,-0.464240015,-0.190479994,0.21672,-1.389700055,0.999300003,-0.314740002,0.298909992,1.516800046,0.019695001,1.344499946,0.084408,0.040552001,0.813690007,-0.078212,0.162139997,0.301829994,-1.004099965,1.101799965,0.080849998,-1.296399951,0.513279974,1.552399993,-1.590999961,-0.875270009,1.016600013,0.66091001,-0.82249999,-0.326819986,-0.15625,-0.228359997,0.904890001,-0.492540002,0.644659996,-0.211359993,-1.276800036,1.084599972,-0.777629972,-0.240740001,1.733100057,-0.519599974,0.430480003
observer,-0.358220011,0.341949999,-0.370359987,-0.143199995,0.895470023,-1.041100025,-0.1303,0.381630003,0.790109992,-1.281399965,0.620710015,-0.280220002,0.154650003,0.744910002,-0.533800006,-0.0023964,0.264640003,-0.081032,-0.357540011,-0.071934998,-0.268040001,1.163900018,0.522360027,0.551959991,0.256419986,-0.654089987,-0.214129999,0.061535001,-0.694850028,1.248800039,1.552899957,-0.476179987,-0.824429989,-0.887109995,-0.604009986,-0.80795002,-0.088642001,-0.421750009,-0.560190022,-0.34040001,0.927259982,-0.15478,0.220540002,-0.345759988,-0.778360009,-0.0035457,-0.258170009,1.216599941,-0.268860012,0.709089994
cleric,-0.127939999,0.084505998,0.392040014,-1.200700045,1.422700047,-0.835039973,0.42287001,0.225960001,-0.103459999,1.16079998,-0.53482002,-1.280699968,-0.416350007,0.380309999,-0.683700025,0.129020005,-0.634119987,-0.211030006,0.455199987,0.892570019,-0.720089972,0.826499999,-0.024514999,1.079599977,-1.284199953,-2.377000093,0.322050005,-0.287440002,-0.808369994,1.616000056,1.07980001,-1.101300001,-1.10650003,0.114079997,1.032299995,-0.397790015,-0.137060001,-0.549709976,-1.134899974,0.386130005,0.060270999,1.149299979,-1.147899985,0.427210003,1.536299944,0.258350015,-1.079900026,-0.010987,-0.197300002,-1.007699966
strategist,-0.760649979,0.027393,0.635150015,0.646749973,1.151100039,-0.91336,-0.485240012,-0.891470015,-1.789299965,-0.87717998,-0.809289992,1.212900043,-1.419800043,0.044027001,-0.863449991,0.589450002,1.485100031,-0.051332999,-0.652079999,0.299219996,0.731400013,-0.354649991,-0.317229986,-0.535359979,-0.065572001,-0.977609992,-0.143199995,-0.413190007,-0.952419996,0.593069971,0.406899989,-0.281069994,1.193199992,-0.443170011,-0.304199994,-1.447199941,-1.873700023,-0.344870001,0.627089977,-0.762310028,-0.034637999,0.392720014,-0.550809979,-0.147650003,1.129199982,-1.181200027,0.096878,0.502960026,1.200899959,1.868100047
detective,0.00088733,-0.384229988,-0.688549995,0.373849988,0.711520016,0.306270003,-0.609000027,-0.061845999,-0.0067864,-0.888549984,-0.53749001,1.097300053,-1.043099999,0.645190001,0.76068002,-1.334699988,0.030179,0.726320028,-0.66900003,0.046330001,0.061705001,0.799799979,-0.036637001,1.018900037,-0.258579999,-1.436400056,-0.721099973,-0.164949998,-0.256870002,-0.522710025,0.652729988,-1.174200058,0.517279983,-1.400300026,0.573390007,1.275200009,-0.50523001,-0.618960023,0.517260015,-0.644819975,0.186770007,1.288300037,-0.025862001,-0.185149997,0.208399996,-0.349119991,0.839460015,0.044105999,0.547839999,1.014600039
guitarist,-1.109599948,0.341939986,-0.072021998,-0.410070002,-0.447979987,0.996490002,-1.758700013,0.218089998,-0.712790012,0.829760015,1.014899969,0.740360022,-0.737309992,0.709810019,0.094438002,-0.606069982,0.939830005,-0.170599997,-0.215149999,-0.450300008,-0.955579996,0.437180012,0.208670005,0.318150014,-0.118450001,0.553879976,-0.18863,-0.489340007,-0.416020006,0.259030014,1.747599959,-1.18659997,0.533249974,0.418309987,0.332210004,0.364039987,0.815020025,-0.798269987,0.335130006,0.02974,0.220290005,0.673330009,-1.657099962,-1.42900002,0.965579987,-0.298220009,-0.356830001,-1.179800034,-1.392400026,0.811100006
baron,-0.116209999,-0.284440011,-0.087328002,-0.123400003,1.202299953,0.117490001,-0.567189991,0.590250015,-0.292180002,-0.932479978,-0.176379994,1.072700024,-0.800719976,-0.968500018,-0.162860006,-0.062121,0.211180001,-0.983529985,-0.915899992,0.170849994,0.784609973,-0.88865,-0.510209978,0.361690015,-0.422340006,-0.924870014,-1.137599945,-1.416300058,-0.359120011,0.76424998,-0.087104999,-0.567849994,0.265049994,0.066105001,1.328600049,-0.039011002,-0.641820014,0.449339986,0.633780003,-0.625890017,0.441960007,0.750919998,-0.702059984,-0.812279999,0.242650002,0.382010013,-0.041262999,-1.640200019,1.304800034,0.150999993
nurse,0.367819995,0.157920003,-0.746779978,-0.965979993,0.655139983,0.662959993,-0.641879976,0.742999971,0.830420017,-0.896799982,0.650699973,0.282449991,0.632449985,0.457230002,0.193079993,-0.53688997,-1.046599984,0.599110007,0.173470005,0.382629991,-0.363440007,1.926699996,0.149979994,0.460420012,-0.067341,-1.238999963,0.012827,-0.569769979,-0.378729999,-0.010404,1.425099969,0.290829986,-0.035939001,-0.159079999,0.607949972,0.53441,0.361490011,0.0092758,1.614799976,-0.504859984,-0.126110002,0.223619998,0.592779994,0.067698002,0.85947001,-0.83987999,0.030866999,-0.636650026,0.016348001,1.452600002
policeman,-0.093714997,-0.505800009,0.340140015,-0.593620002,1.487300038,-0.0044551,0.10046,1.016600013,-0.186550006,-1.001999974,0.036993001,-1.042199969,-0.63519001,0.381720006,0.298379987,-0.993669987,-0.44749999,0.558009982,-0.575380027,0.525529981,-0.306120008,1.461300015,-0.240850002,0.892970026,-0.128179997,-1.805500031,0.445380002,0.218759999,0.373519987,-0.021283001,1.306599975,-0.307610005,0.045832001,-0.138009995,0.402839988,1.247799993,0.462419987,-1.147199988,0.305799991,0.55181998,-0.111160003,0.876980007,0.249390006,-0.484270006,0.96232003,-1.031499982,-0.501709998,-0.143820003,1.102300048,-0.46024999
trader,-0.441399992,-0.257209986,-0.084522001,0.609780014,1.40260005,-0.658439994,-0.635479987,0.214469999,-0.664900005,0.211239994,0.316630006,1.25059998,-0.808390021,0.108549997,0.333050013,-0.110019997,0.733860016,0.014681,-0.610159993,-0.172370002,1.157899976,-0.276199996,-0.609250009,0.079787999,-1.154999971,-1.17900002,0.016496001,0.195639998,0.330559999,0.14463,0.856760025,-1.425099969,1.366700053,0.758350015,0.054637998,-0.779100001,-1.482800007,-0.686469972,1.598199964,0.058013,0.2333,0.685989976,0.57476002,0.0041511,0.717909992,-1.052099943,-0.144140005,0.375809997,0.662819982,0.424490005
congressman,-0.381060004,-0.056919001,0.399179995,0.189930007,0.42227,0.606410027,-0.893660009,0.53451997,-0.730180025,-0.630159974,-1.308300018,0.078523003,0.309670001,-0.038261998,-0.202659994,-1.106699944,-0.143659994,-0.11191,0.618740022,-0.093787,-0.867370009,-0.217710003,0.286020011,0.173590004,-0.306879997,-1.957800031,0.472680002,-0.23669,-0.510429978,0.175669998,0.470380008,-0.880729973,-1.126600027,-0.643970013,0.273070008,-0.714670002,-0.796159983,-0.149320006,0.400240004,-0.405119985,-0.388399988,1.291499972,-0.936909974,-0.303660005,-0.018621,-0.114919998,-0.813080013,-0.125770003,0.099407002,1.43780005
rabbi,-0.528550029,0.70352,-0.498039991,-1.04519999,2.26609993,0.349429995,-0.361319989,-0.21232,-1.881600022,0.249229997,0.405039996,-0.123960003,-0.385250002,0.338129997,0.774190009,0.711969972,0.544290006,-0.814059973,0.853690028,1.612300038,0.237540007,0.090489998,-0.996299982,0.121720001,0.36789,-0.584720016,0.239069998,-1.271299958,-1.040599942,-0.444950014,0.418410003,-1.516899943,-0.317629993,-0.522710025,-0.526820004,-0.26929,0.635609984,0.098700002,1.10860002,1.986099958,-0.309430003,0.323300004,-1.273100019,0.057050001,1.011299968,-0.718169987,-0.261020005,-0.442710012,-0.768320024,0.590129972
teenager,-0.895900011,0.083912998,-0.27847001,-0.403450012,0.462790012,0.68542999,-0.481640011,1.123700023,-0.381639987,0.531229973,0.505010009,-0.796350002,-0.309320003,0.303350002,0.733399987,-0.442829996,-0.403340012,-0.082585998,-0.298909992,0.849479973,-0.65820998,1.308200002,-0.293559998,1.145900011,0.472600013,-1.769400001,0.357470006,-0.38538,0.075470001,-0.308070004,1.139899969,-0.349119991,0.453530014,-0.203830004,0.513559997,0.496170014,-0.150839999,0.324279994,0.088858001,-0.938759983,0.101049997,0.459280014,0.672330022,-0.523570001,1.434299946,-0.499929994,0.43057999,-0.980310023,0.280629992,-0.245240003
chef,-0.120779999,0.596210003,-1.425799966,0.167689994,0.694970012,-0.530619979,-1.104200006,0.232649997,0.038536001,-0.254460007,-0.20499,0.786599994,-0.015504,1.521800041,0.558510005,-0.768260002,0.615819991,0.794700027,-0.080982998,-0.671310008,0.586470008,0.561450005,-0.060759,1.20449996,-0.350769997,-0.51305002,-0.968630016,-0.087794997,-0.27737999,0.283109993,0.751569986,-0.0030994,-0.290250003,0.779060006,0.372319996,0.548780024,-0.587840021,1.378900051,0.886919975,-0.233019993,0.761720002,1.160400033,-0.01578,-0.515630007,0.615920007,0.209989995,-0.236709997,-0.700380027,0.37353,1.501099944
pastor,-0.275070012,0.763620019,-0.676869988,-1.231299996,1.458600044,0.02255,-1.105599999,0.106490001,-0.549679995,-0.204410002,-0.097216003,0.179330006,-0.042388,-0.495510012,-0.063298002,-0.651310027,-0.561140001,-0.024878999,0.415410012,0.875159979,-1.09010005,0.322039992,-0.43908,0.527899981,-0.230100006,-1.076900005,0.986060023,-0.407279998,-0.656069994,0.127829999,0.946330011,-0.856000006,-0.569339991,-0.568729997,-0.582440019,-0.462069988,0.27177,-0.443760008,0.695630014,0.490139991,0.023119001,-0.097286999,-1.463999987,0.120779999,0.939830005,0.707069993,-0.864669979,-0.63045001,-0.751739979,0.593779981
superintendent,-0.347589999,-0.228459999,-0.301719993,-0.127700001,0.456339985,-0.711839974,-0.693470001,0.096725002,-0.245279998,-1.587499976,-0.089639001,0.567860007,-0.57306999,-0.628830016,-0.018347999,-0.490539998,-0.0038832,0.889490008,0.493200004,0.106859997,-0.156330004,0.154799998,-0.852599978,0.121619999,-0.303640008,-0.808220029,0.61473,-0.385450006,-1.173300028,-0.043024998,0.876399994,-0.861829996,-0.0068753,-1.117200017,0.901830018,0.622110009,0.663850009,0.061941002,1.336400032,0.829089999,-0.726230025,0.613300025,-0.544459999,-0.304479986,-0.307000011,-0.157110006,-0.260899991,-0.052788999,0.561659992,1.248900056
surgeon,0.314619988,0.0044402,-0.808089972,-0.781409979,0.229859993,0.600419998,-0.272029996,0.918389976,0.516170025,-0.912460029,0.673009992,0.260019988,0.410600007,1.085700035,-0.638320029,0.088678002,-1.091500044,0.092534997,-0.189649999,0.444000006,-0.373769999,0.654169977,-0.284999996,-0.522419989,-0.205939993,-1.757699966,-0.613030016,-0.759450018,-0.711300015,0.706430018,0.927670002,-0.570819974,-0.208079994,-0.491239995,0.584389985,0.690779984,0.737580001,1.449399948,1.545300007,0.01451,0.269050002,0.744019985,-0.162819996,0.259880006,1.043599963,0.308510005,0.061949998,-0.336050004,-0.526440024,1.407899976
clerk,-0.82525003,-0.627730012,-0.366959989,-0.501309991,1.459400058,-0.230330005,-0.745329976,0.909739971,0.027523,-1.311200023,-0.183980003,0.333649993,0.275660008,0.042247001,0.301560014,-0.329160005,-1.359799981,-0.0057485,0.86559999,-0.522360027,1.50090003,0.112450004,-0.774680018,0.928349972,-0.276239991,-1.66900003,-0.150429994,-0.163699999,-0.078264996,-0.193159997,1.060899973,-1.02670002,0.132709995,-0.305449992,0.526480019,-0.067961998,0.462839991,0.490969986,1.08130002,0.075299002,0.471560001,0.663850009,-0.401540011,0.552760005,-1.154399991,-0.463400006,-0.403050005,-0.658270001,0.844780028,0.720399976
legislator,-1.123299956,0.646239996,0.025467999,0.783659995,0.430590004,0.357369989,0.572520018,0.700540006,-0.758549988,-0.705560029,-0.752189994,-0.453779995,0.675979972,0.77256,-1.070000052,-0.587090015,0.235180005,-0.430200011,0.992209971,0.734109998,-0.272219986,0.097286999,0.198970005,-0.255510002,0.646350026,-1.825199962,0.525390029,-0.822009981,-1.660400033,0.386729985,1.369300008,-0.273710012,-0.660099983,0.472169995,-0.38628,-0.853959978,0.026219999,-0.214029998,0.431629986,0.490579993,-0.789390028,0.895299971,-0.902249992,0.024332,0.763909996,-1.783100009,-1.363399982,-0.513740003,1.218000054,0.70490998
drummer,-1.009299994,0.198599994,0.018224001,-0.399080008,-0.099907003,0.881609976,-1.646900058,0.401670009,-0.621070027,0.227620006,0.695860028,0.855449975,-0.751100004,0.963329971,0.175339997,-0.267089993,0.76503998,0.035960998,-0.185609996,-0.403780013,-0.706350029,0.383960009,0.554069996,0.510119975,-0.119450003,0.556169987,0.038892999,-0.553650022,-0.383379996,0.064296998,1.557899952,-0.997680008,0.265280008,0.145860001,0.446079999,0.670610011,0.841889977,-0.712350011,0.368790001,-0.089891002,0.186829999,0.537670016,-1.840199947,-1.195299983,0.943910003,-0.200350001,-0.241669998,-1.246099949,-1.535899997,1.074200034
boxer,-1.345600009,-0.27511999,-0.087058999,0.685779989,-0.379200011,0.653599977,0.28057,0.289480001,-0.319200009,-0.119259998,0.245829999,0.020578999,0.249909997,0.360040009,0.480699986,-0.8398,-0.245529994,0.998359978,-0.81686002,-0.753189981,-1.254199982,0.063702002,0.36857,-0.175400004,0.057551999,-1.743000031,0.167710006,-0.481970012,-0.503719985,0.690249979,0.656759977,-0.398160011,-0.983399987,0.352400005,0.092936002,-0.060107999,-0.229670003,0.576319993,-0.288780004,-1.254199982,0.127900004,0.948800027,-0.130999997,-0.132620007,0.543129981,-0.019391,-0.565789998,-1.336400032,-0.357270002,0.752789974
broadcaster,-0.629260004,0.055273,0.395830005,1.317399979,-0.37935999,0.422410011,-1.548900008,0.471549988,-0.413569987,0.113519996,1.180999994,0.165539995,0.315109998,1.068899989,0.446370006,-0.10994,-0.330370009,0.947179973,-0.913929999,0.789229989,0.322459996,0.522620022,-0.097684003,0.761569977,0.167410001,-0.874639988,-0.129519999,-0.152620003,-0.623820007,0.400110006,1.371600032,0.417959988,0.770579994,0.169589996,-1.406599998,-0.165240005,0.250690013,-0.741509974,0.025436999,-0.18761,1.53610003,0.662959993,-0.912159979,-0.148069993,-0.801500022,-0.342909992,-1.817399979,1.156100035,-0.066715002,0.811860025
statesman,-1.653499961,1.468099952,0.327380002,0.298150003,0.457670003,-0.752460003,-0.633480012,-0.450580001,-1.010699987,-0.952830017,-0.537050009,0.254900008,-0.164010003,0.53241998,0.099399,-0.321590006,-0.656499982,-0.363180012,0.394829988,0.860570014,-0.712279975,0.843060017,-0.212479994,0.332890004,0.627089977,-1.004799962,-1.037899971,-1.245300055,0.061813001,1.597499967,0.513610005,-0.861570001,-0.46965,0.232810006,-0.132819995,-0.380380005,-0.735740006,0.0095431,-0.060074002,0.270619988,1.218500018,0.777629972,0.362410009,0.270209998,0.15749,0.368099988,-0.319799989,-0.142969996,-0.190029994,0.911580026
investigator,0.509360015,-0.132459998,-0.265780002,0.378069997,0.31189999,-0.024135999,-0.173050001,0.464060009,0.895860016,-1.007400036,-0.121809997,0.561559975,-0.755100012,0.777760029,0.55351001,-0.987760007,0.10029,0.183449998,-0.189439997,-0.082269996,0.088665999,0.959890008,-0.232789993,-0.035556,-0.205090001,-1.810299993,-0.176229998,-0.095362999,-1.116099954,0.004823,0.500109971,-1.127599955,-0.496699989,-1.440799952,0.248539999,0.587499976,0.186770007,-0.36412999,1.011199951,0.146090001,-0.081306003,1.050099969,0.557470024,-0.125420004,0.269800007,-0.673740029,-0.061671,1.181100011,0.514190018,0.623929977
sergeant,-0.921660006,-0.062477,0.068723999,-0.294250011,1.168200016,-0.474130005,0.208210006,0.971849978,0.200900003,-1.724599957,0.206589997,0.805689991,-0.698459983,-0.107380003,-0.302509993,-1.242300034,-0.581179976,0.636020005,-0.72687,-0.346060008,-0.352609992,0.620530009,0.524259984,-0.358150005,-0.506699979,-1.228899956,0.159999996,-0.427789986,-0.050275002,0.340840012,0.820599973,-1.082700014,-0.131909996,-0.60601002,0.915610015,0.895640016,0.393720001,-0.489569992,0.565999985,0.085675001,0.268000007,0.564360023,-0.041832,-0.793160021,0.619610012,-1.109200001,0.335029989,-0.436150014,-0.222540006,1.222800016
skipper,-0.222090006,-0.453480005,-0.371800005,0.237780005,0.548210025,-0.39884001,-0.802879989,0.516929984,0.367570013,-0.414110005,0.432880014,1.959800005,-1.286999941,0.357950002,-0.095729001,-0.382530004,0.944249988,-0.33355999,-1.779700041,-0.303930014,-1.636800051,1.196799994,0.32683,-0.455779999,0.731809974,-0.775640011,1.249500036,-0.181610003,-0.75365001,0.769349992,0.939670026,0.432000011,0.346320003,1.390200019,0.880410016,0.135649994,0.626049995,0.015291,-0.625829995,-0.405400008,0.345340014,0.92227,-0.014405,0.134430006,0.046799,1.02579999,-0.912370026,-0.114519998,0.487170011,-0.447039992
conductor,-0.293660015,0.714649975,-0.693470001,-0.24684,-0.11829,0.204980001,0.0054107,1.419399977,-1.038200021,0.629689991,1.534600019,0.318709999,-0.248679996,2.01880002,-0.130630001,-0.492949992,-0.200800002,0.843280017,-0.730599999,-0.640139997,1.156100035,0.566320002,-1.097900033,0.28154999,0.250079989,-0.527660012,-0.233779997,-0.552730024,-0.816579998,0.724080026,1.210399985,-0.353029996,0.722800016,-0.372009993,-0.093783997,0.067096002,1.326500058,1.000699997,0.955500007,1.21449995,0.365229994,0.849629998,-0.582379997,-0.437150002,-0.148110002,-0.081055,-0.408190012,-0.698589981,-0.984969974,1.095100045
banker,0.239989996,0.290490001,0.020189,-0.33724001,1.172299981,-0.164619997,-0.998570025,0.201079994,-1.257699966,0.056421999,-0.265689999,0.856169999,-0.223739997,0.368999988,0.312279999,-0.399179995,0.11073,0.117210001,0.117040001,0.510630012,0.93423003,0.00047685,-0.958509982,0.392259985,-0.755100012,-1.629400015,0.097700998,-0.492559999,-0.651780009,0.822730005,0.529110014,-0.762130022,0.552200019,0.087783001,0.277330011,-0.52493,-1.300400019,0.335999995,1.007500052,-0.730560005,0.062040001,0.571579993,0.505559981,0.060373999,0.457230002,-0.701770008,-0.793240011,-0.075172998,1.022899985,0.621490002
dancer,-0.790679991,1.078299999,-1.282299995,-0.157649994,0.114890002,0.879689991,-0.183919996,0.570969999,-0.505689979,0.900579989,1.100000024,0.068680003,-0.010723,1.415300012,0.194790006,-0.40338999,0.528639972,0.968289971,-0.711809993,-0.536769986,0.207399994,1.283100009,-0.614970028,0.602769971,0.40417999,-0.739080012,-0.697929978,-0.166260004,-0.320419997,-0.251599997,1.047899961,-0.096424997,0.0077754,0.323329985,0.358200014,0.173590004,-0.072844997,0.558860004,0.052925002,-0.342480004,-0.155330002,0.658689976,-0.040054001,-0.701300025,0.081009001,-1.579900026,0.306499988,-1.898900032,-0.519209981,0.505330026
missionary,0.956279993,0.293379992,-1.430099964,-1.756500006,0.970200002,0.225009993,-1.877200007,0.011779,0.594259977,-0.564890027,0.721560001,0.457260013,0.388249993,0.050804,-0.934949994,-1.162099957,-0.883390009,-0.071222,-0.147630006,1.283200026,-0.301789999,1.002799988,-0.75819999,0.72262001,0.451900005,-0.905939996,0.471560001,-1.332100034,-0.687080026,0.260109991,1.316300035,-0.414669991,-0.503340006,-0.259059995,-0.098373003,-0.664470017,-0.576359987,-0.432379991,0.304780006,1.010599971,-0.014529,-0.828059971,0.023847001,-0.106830001,0.511020005,0.298130006,-0.334170014,-0.257999986,-0.435299993,-0.210910007
magistrate,0.184599996,-0.308589995,-0.978760004,0.813329995,0.349530011,-0.379649997,1.057199955,1.042500019,-0.364060014,-0.654299974,-0.450540006,-0.109739996,0.373950005,-0.206949994,0.241669998,-0.189140007,-0.499799997,-0.883130014,0.02111,-0.090755001,0.900479972,0.343840003,-0.16787,-0.117619999,-0.540629983,-1.716599941,0.951059997,-0.140870005,-1.954200029,-0.611150026,0.447430015,-0.951170027,-0.311760008,-1.064700007,0.793470025,-0.577069998,1.082000017,0.019867999,0.488169998,0.194849998,-0.365559995,1.524700046,0.402159989,-0.107709996,-0.097580001,-1.170699954,-0.517040014,-0.824660003,1.478600025,0.305720001
performer,-1.385900021,0.482849985,-0.659870028,0.191909999,0.753719985,0.229430005,-0.454380006,0.407070011,-0.331510007,1.594599962,0.634119987,-0.234209999,0.126220003,1.259299994,0.257510006,-0.748399973,0.286469996,0.593270004,-0.643509984,-0.36342001,0.150440007,0.522249997,-0.483929992,0.75059998,0.31171,-0.35563001,-0.815829992,-0.52184999,-0.342079997,0.455769986,1.782899976,-0.023050001,1.211400032,-0.181060001,0.427399993,-0.052391998,-0.0083229,0.406089991,-0.561829984,-0.962819993,-0.214029998,0.612909973,-0.71706003,-0.368349999,-0.027512999,-0.849080026,0.118280001,-0.660030007,-0.263229996,1.1329
filmmaker,-0.149230003,0.347440004,-0.236640006,-0.43186,0.578170002,0.392610013,-0.724609971,-0.508019984,-0.191890001,1.588400006,0.286159992,0.404469997,-0.15388,1.247799993,0.934140027,-0.676760018,1.225999951,0.337040007,-0.594659984,0.778379977,0.385280013,1.241400003,-0.446229994,0.190139994,0.863110006,-1.252400041,-0.93730998,-0.531140029,-0.655889988,0.067405,0.590279996,-0.813899994,0.319840014,-0.817780018,-0.357369989,0.311760008,-0.301459998,0.329079986,-0.167380005,-0.348509997,0.380800009,1.559299946,-0.018045999,-1.311800003,0.215289995,-0.517440021,-0.166040003,-0.414609998,-0.104910001,0.681249976
novelist,-0.746599972,0.893610001,-0.656310022,-0.722069979,0.151319996,0.856509984,-1.118800044,-0.50128001,-0.614160001,0.958980024,-0.50466001,0.864009976,0.062999003,0.358229995,1.503000021,-1.424299955,0.499430001,0.034752,-0.426950008,1.35800004,0.146390006,1.041499972,-0.0056049,0.51305002,1.430099964,-1.454900026,-0.967689991,-1.115499973,-0.535160005,0.834330022,0.280790001,-1.64139998,0.212129995,0.097073004,-0.096277997,0.10808,-1.245000005,0.545270026,0.00024636,-0.471139997,0.771369994,1.583400011,0.4745,-0.754499972,-0.265390009,0.091784999,-0.060649998,-0.297980011,-0.015247,0.108230002
treasurer,-0.575209975,-0.111780003,-0.259799987,0.067341998,0.30647999,0.060904,-0.657090008,-0.0084305,-0.432999998,-1.58070004,-0.379170001,1.021000028,0.0066432,-0.695450008,0.278640002,-0.231020004,0.029967001,0.212789997,0.335359991,0.152170002,0.197750002,-0.97122997,-0.126699999,-0.160620004,-0.977450013,-1.230599999,0.526049972,-0.373670012,-1.451200008,0.656859994,0.54610002,-0.159419999,-0.108489998,-0.641600013,-0.282790005,-0.22044,-0.249510005,0.210580006,0.94471997,-0.985960007,-0.523869991,0.799459994,-0.98022002,-0.128040001,-0.879949987,-0.208120003,-1.398300052,-0.680060029,1.006600022,0.89477998
instructor,-1.479300022,0.371120006,-0.978320003,-0.421799988,-0.070739999,-0.609459996,-0.602970004,0.248140007,0.253829986,-0.783010006,0.890269995,0.569429994,-0.364879996,0.941649973,-0.550369978,-0.737619996,-0.639180005,1.5625,-0.974150002,-0.174669996,-0.15636,1.238199949,-0.481400013,0.202219993,0.237690002,-1.333899975,-0.0014402,-0.749059975,-0.184440002,0.186849996,1.33220005,-0.236750007,-0.657869995,-0.443540007,0.829429984,0.773810029,0.185100004,0.765370011,0.587570012,0.622420013,0.035859,0.0077994,0.080052003,0.559889972,0.443489999,-1.099699974,1.161399961,-0.336349994,-0.537909985,1.283499956
warrior,0.048691001,0.171149999,-0.547789991,-0.125560001,0.998090029,-0.164309993,-0.049197,-0.123920001,0.051656999,-0.438080013,0.439889997,0.614260018,0.043308999,0.388689995,-0.688260019,-0.323199987,0.193049997,1.093700051,-1.325899959,0.424879998,-1.246799946,0.486180007,-0.569270015,-0.216089994,0.633300006,-1.210999966,-1.445000052,-0.719290018,0.296829998,0.298990011,1.254799962,-0.071298003,-0.640500009,0.797370017,0.214249998,0.649770021,-0.339890003,-1.195700049,-1.010499954,-0.258170009,-0.080035001,-0.405970007,-0.486490011,0.178550005,0.541700006,-0.217769995,0.011461,-0.892570019,-0.197909996,-0.503030002
comedian,-1.086300015,0.702170014,-0.506070018,0.168809995,0.123740003,1.038800001,-0.744189978,-0.029046999,-0.984529972,0.916840017,-0.420170009,0.106389999,0.190620005,0.827650011,1.049999952,-0.398660004,0.720459998,0.494709998,-0.782809973,0.427489996,0.24278,1.119600058,0.515139997,1.013100028,0.321539998,-0.497660011,-0.223470002,-0.333270013,0.076298997,0.388009995,0.689149976,-0.063119002,0.540059984,0.058935001,0.132949993,0.522970021,-0.034630999,0.010567,-0.752390027,-0.218940005,0.643040001,2.079999924,-1.338199973,-0.716180027,0.169990003,-1.035699964,-0.655780017,-0.853309989,-0.463880002,1.946400046
monk,-0.301730007,0.319059998,-1.456400037,-0.834209979,1.325299978,-0.68562001,-0.448619992,0.061492,-0.068622001,0.447959989,0.545170009,0.794330001,0.388550013,0.143800005,0.542089999,0.035622999,-0.409680009,-0.161400005,-0.232099995,0.916469991,-0.851300001,0.812969983,-0.414110005,0.374199986,0.35958001,-0.810230017,-0.112089999,-0.706420004,-1.165099978,-0.426809996,1.030099988,-1.234099984,-0.038235001,0.550409973,0.337540001,0.253719985,0.370709985,-0.501510024,0.029204,0.296099991,-0.230719998,0.284640014,-0.349049985,0.395489991,1.094099998,0.086461,0.245759994,-1.08920002,-0.671370029,-0.847890019
pianist,-1.121700048,1.020799994,-1.236700058,-0.50782001,0.31843999,0.663749993,-0.852330029,1.040099978,-1.151600003,1.721099973,1.201699972,0.431100011,0.166940004,1.112400055,0.708850026,-0.571070015,0.555260003,0.288029999,-0.045355,0.088462003,0.325500011,1.026900053,-0.367110014,0.118490003,0.500819981,0.049490001,-0.510580003,-1.043099999,-0.631449997,0.131809995,1.005499959,-1.128999949,0.567149997,0.254779994,0.872150004,0.225409999,0.827870011,0.91486001,0.407469988,0.465869993,0.007492,0.765009999,-0.49871999,-1.232200027,0.557020009,-0.257719994,-0.271629989,-0.911149979,-1.671499968,0.998899996
commentator,-1.411000013,0.849009991,-0.333779991,0.956019998,-0.271730006,0.266409993,-0.979870021,-0.234500006,-0.895120025,-0.409189999,-0.158089995,-0.033440001,-0.555850029,0.887899995,0.574710011,-0.170489997,0.314300001,0.323900014,-0.612110019,0.589439988,-0.102430001,0.734120011,0.304089993,1.052000046,0.468470007,-0.961929977,-0.012826,0.011861,-0.626339972,1.224699974,0.838559985,-0.471060008,0.700230002,-0.624339998,-1.282899976,-0.078711003,-0.247309998,0.10537,-0.523829997,0.256819993,1.20720005,1.206400037,-1.371700048,0.620060027,0.144529998,-0.413329989,-0.722609997,0.859380007,-0.120899998,1.159999967
collector,-0.394239992,0.791159987,0.318709999,-0.266849995,0.607550025,-0.019938,-0.955330014,-0.354950011,0.407449991,0.447340012,-0.020570001,0.732689977,0.989560008,0.338319987,1.05490005,-0.555800021,0.161430001,0.558499992,-0.213049993,-0.111110002,0.960189998,-1.145599961,-0.861410022,0.368990004,0.0034361,-1.250200033,-1.154899955,-0.139630005,0.177100003,0.314819992,0.717980027,-1.338700056,0.720359981,-0.074709997,0.103370003,0.909609973,0.269529998,0.530260026,0.237969995,-0.334870011,1.034399986,0.689729989,0.001945,0.254819989,-0.019524001,0.048691001,-0.674730003,-0.279740006,0.565559983,-0.127900004
carpenter,-0.401129991,0.345560014,-0.169579998,-0.315629989,0.436489999,0.738030016,-1.460100055,-0.174689993,-0.502870023,-0.641730011,-0.340350002,0.813830018,-0.334960014,0.197080001,0.196480006,-0.369230002,0.033677001,0.237719998,-0.273310006,0.011753,-0.163719997,0.362340003,-0.678900003,0.0040443,0.592980027,-0.444599986,-0.0064932,-0.699349999,0.305519998,-0.170279995,0.741949975,-0.716600001,0.340490013,0.048253,0.430940002,0.250939995,0.246089995,0.167830005,0.939419985,0.124619998,0.158380002,0.158500001,-0.272670001,-0.059985001,0.477189988,-0.023181001,0.055971,-0.968289971,-0.092780001,1.250399947
servant,-0.411370009,0.247569993,-0.669030011,-1.293400049,1.790500045,0.0073875,0.297019988,0.49101001,-0.18964,-0.73793,0.010486,1.030900002,0.329620004,-0.016958,0.299499989,-0.779449999,-0.059103999,0.789240003,0.424870014,0.541119993,0.143879995,0.662389994,-0.415439993,0.238690004,0.361909986,-1.338999987,-0.259119987,-0.939279974,-0.28470999,1.008299947,1.162099957,-0.21943,-0.164729998,0.340990007,0.162670001,0.658609986,0.0072224,-0.169990003,0.296640009,-0.485320002,0.074428,0.088864997,-0.279769987,0.360199988,-0.176589996,-0.708350003,-0.752189994,-0.487129986,0.753409982,0.234040007
entrepreneur,-0.680689991,0.321200013,0.156529993,0.517180026,0.444620013,0.129910007,-1.756299973,-0.929949999,-0.094366997,1.063699961,0.416119993,0.47220999,-0.0058092,0.670400023,0.034042999,-0.339020014,0.413610011,1.17840004,-0.050375,0.625569999,0.848779976,0.407900006,-1.197900057,0.52184999,0.133770004,-1.322700024,-0.200920001,-1.179100037,-0.308780015,0.824370027,0.925360024,-0.689130008,-0.023698,0.05508,-0.099335998,-0.180020005,-1.153699994,0.791970015,0.243430004,-0.455650002,0.521589994,0.55053997,-0.45886001,-0.070637003,0.33653,-0.445789993,-0.802209973,-0.682919979,0.473580003,0.684449971
marshal,-0.335750014,-0.334969997,0.237090006,-0.239559993,0.68532002,-1.240100026,0.54163003,0.740949988,-0.626929998,-1.481600046,0.675740004,0.792479992,-0.529990017,-0.223199993,-0.218649998,-0.218260005,0.235850006,0.184090003,-0.987309992,-0.444290012,0.272650003,-0.447160006,-0.346130013,-0.881290019,-0.261130005,-1.464400053,-0.438620001,-0.661949992,-0.215499997,1.04400003,-0.007751,0.059659,-0.791109979,-0.557120025,0.081317998,0.446119994,-0.16516,0.334329993,-0.072870001,0.766269982,0.571749985,1.6954,-0.25158,-1.095299959,-0.693109989,-0.874440014,-0.264530003,-0.894689977,-0.231000006,0.467880011
psychologist,-0.160669997,0.657320023,-0.683319986,-0.207269996,0.224710003,0.593609989,-0.635829985,-0.192200005,0.102310002,-0.316320002,0.35747999,0.184169993,-0.303110003,0.283329993,0.398160011,-0.318610013,-0.167679995,0.417400002,0.251269996,0.456149995,-0.208719999,1.590299964,-0.436569989,0.484360009,0.400869995,-1.080500007,-0.271600008,-1.173099995,-0.967090011,0.340059996,0.552649975,-0.940119982,-0.028991999,-1.899099946,0.107840002,0.128309995,-0.308999985,0.510230005,1.915899992,0.433310002,0.144940004,0.353199989,0.362159997,0.636449993,0.901369989,-0.180399999,0.714810014,0.278539985,-0.297340006,1.693600059
cop,-0.494919986,-0.444020003,-0.229719996,-0.341879994,0.375950009,-0.0050266,0.421310008,-0.294640005,-0.544239998,0.165759996,-0.71092999,0.139320001,-0.954580009,0.895099998,0.544610023,-0.850520015,0.247140005,1.417400002,-0.258720011,0.235819995,-0.29806,0.561770022,-0.471080005,1.486299992,-0.647409976,-1.602599978,-0.24109,0.301389992,0.756030023,-0.682099998,0.934279978,-0.133399993,-0.13707,-0.328440011,0.271609992,0.864369988,-0.055085,-1.006600022,0.142480001,-0.785839975,-0.46292001,0.704110026,0.222330004,-0.25060001,0.498549998,-0.481099993,0.56287998,-0.531300008,0.73872,1.31219995
vocalist,-1.031299949,0.756110013,-0.228520006,-0.110509999,-0.151370004,1.317999959,-1.110800028,0.467460006,-0.25948,0.750199974,1.038200021,0.487789989,-0.300630003,1.092100024,-0.148910001,-0.490550011,0.555649996,-0.177550003,0.213960007,-0.248889998,-0.521350026,0.576300025,0.175160006,0.438279986,0.168559998,0.511020005,-0.235760003,-0.579209983,-0.877449989,0.226659998,1.648399949,-0.815869987,0.559480011,0.071469001,0.570569992,0.341630012,0.933889985,-0.605229974,-0.168229997,-0.400830001,0.175610006,0.518299997,-1.710700035,-1.422899961,0.353560001,-0.560389996,-0.179460004,-1.096899986,-1.088400006,0.703429997
caretaker,0.073352002,-0.178729996,-0.215859994,-0.230609998,0.998459995,-0.473930001,-0.126990005,0.556789994,-0.716350019,-0.831279993,-0.043501001,0.602050006,-0.381040007,0.663119972,0.177890003,0.837469995,0.263419986,0.331070006,0.910290003,0.664550006,-0.147070006,0.513499975,-0.038313001,0.011544,-0.731999993,-0.398099989,1.40170002,0.0039289,-0.485709995,1.741400003,1.41110003,-0.158649996,-1.208999991,-0.357300013,0.406960011,1.188599944,0.674899995,0.075180002,0.454829991,-1.017099977,-0.601689994,-0.058331002,-1.383599997,0.192929998,-0.397190005,0.029036,-0.939040005,0.063997,1.147500038,-0.010117
mediator,0.940379977,0.330819994,-1.33949995,-0.068203002,0.608900011,0.096997,0.015314,1.425799966,0.025446,-0.454640001,0.344570011,0.896130025,-0.752439976,1.063899994,0.140900001,0.208049998,1.438899994,-0.452109993,1.101799965,-0.398110002,-0.106409997,0.806509972,0.038256999,0.751540005,-0.211769998,-0.473949999,1.347300053,-0.142660007,-1.023800015,1.328099966,0.943239987,-0.813759983,-1.41929996,-0.237719998,0.886650026,-0.469900012,-0.68949002,-0.324559987,-0.106389999,0.107249998,-0.250779986,1.026299953,-0.355650008,-1.237499952,-0.190679997,0.364690006,0.223460004,1.130699992,-0.943639994,0.262510002
lecturer,-1.388299942,1.118000031,-1.506800056,-0.807519972,-0.109010004,-0.441359997,-0.410210013,-0.268979996,-0.496419996,-0.272130013,0.483660012,0.21548,-0.031596001,0.136669993,-0.207010001,-0.39300999,-0.38736999,1.175300002,-0.132349998,1.463099957,0.981930017,1.466199994,0.018254001,0.731090009,0.307000011,-1.203099966,0.47014001,-0.769829988,-1.693400025,1.400699973,1.059499979,-0.79677999,0.24402,-1.497799993,0.148120001,0.611850023,-0.29501,1.274299979,0.537360013,0.353430003,0.449550003,0.332269996,-0.517690003,0.476920009,-0.071165003,-0.119429998,0.232539997,0.218730003,-0.155230001,0.363889992
playwright,-0.542890012,0.480989993,-1.195899963,-0.709490001,0.267360002,1.053300023,-0.725489974,0.135859996,-0.896539986,1.576300025,-0.325509995,0.617569983,0.072201997,0.859449983,1.072999954,-1.068699956,1.214699984,0.145510003,-0.684220016,1.133100033,0.636669993,0.96142,-0.608099997,0.446440011,1.251399994,-1.008100033,-0.626030028,-1.279600024,-0.800459981,0.25534001,0.404610008,-1.174100041,0.261489987,-0.032341,-0.142240003,0.026435001,-0.512639999,0.348569989,0.037813,-0.017305,0.375910014,1.582999945,-0.201189995,-0.923740029,-0.227950007,0.143720001,-0.108309999,-0.322259992,-0.853309989,0.359409988
curator,-0.334800005,0.958880007,-1.491000056,0.259660006,1.181800008,-0.878629982,-1.135699987,-0.973100007,0.200189993,-0.739409983,0.363189995,0.722199976,0.285169989,0.429589987,0.773999989,0.032198999,0.485110015,0.27779001,-0.093543001,0.579400003,0.460209996,0.289979994,-0.623989999,-0.44806999,0.033082001,-0.503859997,-0.556599975,-0.218889996,-1.294700027,-0.427100003,0.11795,-1.08220005,0.736739993,-1.729200006,-0.496039987,0.762920022,-0.059636999,1.464599967,0.389380008,0.050193001,0.262120008,0.320050001,0.620299995,-0.204740003,0.357389987,0.074986003,-0.31141001,-0.442900002,-0.649659991,0.77542001
astronaut,0.70547998,0.899980009,0.869319975,0.257470012,0.258579999,0.270500004,-1.456799984,0.316890001,0.818369985,-0.964999974,0.886839986,0.851520002,-0.216299996,2.365499973,0.409889996,-0.056612,-0.095400997,0.477429986,-0.76165998,0.081933998,-0.501900017,1.033599973,-0.41069001,-0.423940003,1.058500051,-0.973590016,0.478249997,-0.727469981,-0.547110021,0.426010013,-0.246189997,-0.222440004,-0.84691,0.010312,0.640799999,0.21717,0.454160005,0.813960016,-0.026589001,0.242630005,-0.115060002,0.565410018,0.604879975,-0.398779988,0.599300027,-0.632430017,0.391330004,-0.578729987,-0.722469985,1.013200045
ranger,-0.260720015,0.121799998,0.546459973,0.051956002,0.435409993,-0.486009985,-1.166300058,-0.040511001,0.488990009,-1.285300016,0.197889999,0.51038003,-0.091642,0.103210002,-0.577690005,-0.67434001,0.276300013,0.848479986,-1.048499942,-0.403039992,-1.075500011,-0.269059986,-0.390179992,-0.092151999,-0.385159999,-0.469940007,-0.456140012,-0.114770003,0.102569997,-0.468050003,0.728630006,0.161610007,-0.368239999,-0.107160002,0.76177001,0.970969975,0.067810997,-0.774269998,0.290140003,-0.183290005,0.073177002,0.236179993,-0.600359976,-0.550949991,-0.365420014,-0.210150003,0.385989994,-0.1303,-0.176520005,0.517120004
tycoon,0.3486,0.0099963,0.548619986,1.759600043,0.293650001,0.211439997,-0.418159992,-0.129649997,-0.671790004,1.107300043,-0.335370004,0.999230027,-0.240710005,0.904500008,0.527570009,0.044039998,0.072658002,0.507319987,-0.052104,0.740580022,1.071699977,-0.024426,-1.213600039,-0.146880001,-0.352860004,-2.125499964,0.226490006,-0.636759996,-0.191200003,1.04400003,0.306109995,-1.095299959,0.12218,1.285599947,-0.413590014,-0.367240012,-1.008700013,0.488739997,-0.175640002,-0.477930009,0.502319992,1.353199959,0.255519986,0.38053,0.648810029,-0.090995997,-1.894500017,-1.135499954,0.978839993,-0.567849994
barber,-1.198099971,0.216940001,-0.292219996,-0.10616,-0.100790001,0.098265,-1.139899969,-0.161899999,-0.486369997,-0.261720002,-0.267069995,0.598429978,-0.920580029,-0.331620008,0.326660007,-0.339049995,-0.327609986,0.156990007,0.027934,-0.527570009,-0.056058999,0.382499993,-0.528630018,0.098415002,0.164719999,-0.562839985,-0.194440007,-0.258109987,0.550409973,-0.787119985,0.582599998,-0.076719001,0.154929996,0.544149995,0.670650005,0.422210008,0.155469999,0.601700008,0.561140001,0.653219998,0.023146,0.593420029,-0.232879996,-0.093176998,-0.108259998,0.29877001,0.065196,-0.70332998,-0.194600001,0.330260009
sailor,-0.535939991,0.573189974,-0.498800009,-0.193200007,0.562709987,0.592670023,-0.633210003,0.416990012,0.228919998,-0.476839989,1.135499954,1.034000039,0.309350014,1.210600019,0.48596999,-0.560679972,-0.069812,0.335880011,-1.929499984,0.0063789,-0.869140029,1.128499985,0.315519989,0.256520003,0.337419987,-1.268700004,0.151089996,-0.113020003,0.150859997,0.271010011,0.354550004,-0.034017,-0.258749992,0.52196002,0.588930011,0.244039997,0.228310004,-0.83427,-0.753589988,-1.056100011,0.649990022,0.197109997,1.054299951,-0.348919988,0.57099998,-0.943400025,0.123280004,-0.619210005,0.28294,-0.115280002
philosopher,-0.538190007,0.893180013,-0.679690003,-1.248900056,0.891600013,0.471819997,-0.39616999,-1.007799983,-1.616299987,0.576269984,0.225669995,0.781809986,-0.336160004,0.044505998,0.027602,-0.850759983,0.657670021,0.0082303,-0.394160002,0.739239991,-0.357369989,0.868099988,-0.933969975,0.24594,2.059200048,-0.991810024,-0.787540019,-1.430500031,-1.16260004,1.289299965,0.356739998,-1.966799974,-0.207359999,-0.145689994,-0.550119996,-0.750509977,-0.592209995,0.84683001,0.563660026,1.158800006,1.065799952,0.404590011,0.338340014,0.725899994,0.366030008,0.52621001,0.138050005,-0.089261003,0.230460003,-0.517610013
swimmer,-1.962900043,1.186300039,-0.110880002,0.750050008,0.0094412,0.509869993,-0.28865999,0.552999973,0.888220012,-0.292450011,1.629199982,-0.23917,0.095284998,0.270040005,1.471500039,-0.318360001,0.957939982,0.76406002,-1.337599993,-0.469410002,-0.764159977,0.508979976,0.210030004,0.212339997,1.209100008,-0.850000024,0.688189983,-0.698450029,-0.812219977,0.633530021,0.37064001,-0.053242002,-0.130840003,0.218610004,-0.097213,-0.051284,0.271869987,1.102699995,-0.398030013,-0.706330001,0.200330004,0.065279998,0.74180001,-0.221919999,0.68900001,-1.485299945,0.224700004,-1.128299952,-0.073632002,-0.190080002
wrestler,-2.288500071,0.386119992,0.088137999,0.787240028,0.345990002,0.675909996,0.695770025,0.781029999,-0.523150027,-0.279439986,1.226999998,-0.076829001,-0.394089997,0.64538002,0.453999996,-0.68542999,0.328150004,1.406999946,-1.199300051,0.115910001,-1.128700018,-0.428330004,0.315750003,0.521489978,0.0015317,-1.268700004,0.178259999,-0.568390012,-0.152290002,0.105630003,0.744490027,-0.217010006,0.058807999,0.339749992,-0.305420011,0.795180023,-0.115939997,0.332540005,-0.767199993,-0.746890008,0.096810997,0.244770005,-0.460000008,0.040724002,-0.070049003,-1.775599957,0.313989997,-1.217399955,-0.393260002,-0.046780001
undersecretary,0.205070004,-0.217299998,-1.087000012,0.462980002,0.621330023,-1.019600034,-0.463499993,-0.673070014,0.313789994,-1.761999965,-0.441969991,1.396700025,-0.251199991,0.554199994,0.278160006,-0.665679991,0.459450006,-0.241630003,0.79400003,0.934650004,0.2579,0.186560005,-0.288650006,-1.228800058,-0.112970002,-1.08039999,1.70539999,0.061969001,-0.861410022,0.942830026,0.409159988,-0.625310004,-0.262970001,-0.430830002,-0.471240014,0.402810007,-1.1171,0.837530017,0.458939999,0.802470028,-0.152439997,1.772500038,0.823050022,-1.235399961,-0.122879997,-0.109250002,-0.274940014,1.26760006,-0.122390002,1.313699961
promoter,-0.296259999,-0.121770002,-0.678709984,1.722300053,-0.012499,0.084022999,-0.226040006,0.503549993,0.194389999,1.075000048,0.650409997,0.150169998,-0.527530015,-0.060345002,0.689779997,-0.198249996,0.730159998,0.550719976,-0.228560001,-0.198559999,-0.152559996,-0.610419989,-0.507499993,0.570389986,-0.629190028,-0.708660007,-0.254339993,-0.832639992,-0.021978,0.246419996,1.046300054,-0.324400008,0.053238999,0.181799993,-0.560140014,-0.278930008,-0.289119989,0.232460007,-0.22811,0.225280002,0.650600016,0.701709986,-1.597599983,0.354680002,0.453660011,-0.956399977,-0.622550011,-0.627269983,-1.122799993,1.269600034
salesman,-0.686140001,-0.203720003,-0.127389997,-0.351009995,0.732320011,-0.104269996,-1.056300044,-0.45844999,-0.174950004,0.288289994,0.303009987,0.758369982,-0.580389977,0.184990004,0.030699,0.071351998,-0.465059996,1.408599973,0.146359995,-0.295049995,1.154399991,0.414050013,-0.987089992,0.409810007,-0.226019993,-1.483899951,-0.235839993,0.216600001,0.795530021,0.135609999,0.63775003,-0.516409993,0.733340025,0.768710017,0.517719984,-0.047456,-0.77234,0.880060017,1.085000038,-0.01997,0.506349981,0.462449998,-0.034949001,0.333149999,0.832930028,-0.59266001,-0.076307997,-0.183469996,0.540040016,0.772170007
sculptor,-0.129920006,0.768329978,-0.600470006,-0.763230026,0.772960007,0.512619972,-0.993499994,-0.750779986,-1.345499992,0.267830014,0.56408,0.0051082,0.690450013,0.372889996,0.42403999,-0.787660003,0.693239987,0.555270016,-0.333790004,-0.165329993,0.252660006,0.072411001,-1.41050005,-0.575680017,0.543829978,-0.250569999,-0.799319983,-0.786379993,-0.966489971,0.330159992,0.041965999,-1.689200044,-0.262499988,-0.829999983,0.269809991,0.824209988,0.234799996,1.443199992,0.375739992,-0.145249993,0.765670002,0.562680006,0.427040011,-1.162500024,0.348940015,-0.078838997,-0.446700007,-1.299600005,0.022629,-0.387600005
psychiatrist,0.550949991,-0.15738,-0.608309984,-1.101400018,0.47676,0.479290009,-0.091652997,0.434870005,-0.396429986,-0.200039998,0.025815999,0.110909998,-0.445780009,0.492709994,0.214990005,-0.166360006,-0.461320013,0.287230015,-0.057955001,1.004099965,-0.136350006,1.752799988,-0.329780012,0.371160001,-0.045281999,-1.559200048,-0.48774001,-0.837979972,-0.843379974,0.377090007,0.163949996,-0.923539996,-0.064107001,-1.247099996,0.461809993,0.500890017,0.144950002,0.364679992,1.787199974,-0.023993,0.177719995,0.586600006,0.457650006,0.563040018,1.190700054,-0.180769995,0.640359998,0.251150012,-0.291770011,1.523300052
screenwriter,-0.607800007,0.093888998,-0.250930011,-0.585340023,-0.063179001,0.894840002,-1.227800012,-0.546159983,-0.525470018,1.115499973,-0.042909,1.124600053,-0.147670001,0.989880025,1.237200022,-0.922689974,1.152199984,0.362239987,-0.338959992,0.885420024,0.599269986,0.947669983,0.077804998,0.630010009,0.786019981,-0.654049993,-0.179049999,-0.788020015,-0.434870005,-0.084957004,0.348259985,-1.411399961,0.459710002,-0.362659991,0.081501998,0.402040005,-0.461519986,0.27553001,0.01459,-0.557609975,0.465330005,1.573799968,0.056559999,-1.270099998,-0.632420003,-0.57111001,0.127749994,-0.218549997,-0.73514998,1.236799955
counselor,-0.308600008,0.972869992,-0.785749972,-0.399910003,0.705789983,0.015002,-0.35758999,0.116389997,0.340649992,-0.804989994,-0.182150006,0.731760025,0.125369996,-0.023379,0.174099997,-0.126179993,-0.830049992,0.277689993,1.174700022,0.705309987,-0.017062001,0.928040028,-0.075581998,0.197119996,-0.190589994,-0.962570012,0.638750017,-0.714959979,-0.395649999,0.599699974,0.858640015,0.199159995,-0.313430011,-0.899039984,0.227530003,0.481770009,-0.542750001,0.248860002,1.403300047,-0.281980008,-0.229929999,0.210470006,-0.330359995,0.428050011,0.605170012,-0.398959994,0.360549986,0.115620002,0.197760001,1.35710001
narrator,0.40169999,0.72736001,-0.054304,-0.485119998,1.331699967,0.844380021,0.094912998,0.372209996,0.053123999,0.281280011,-0.447369993,0.69058001,0.206420004,0.466349989,0.561290026,-0.543449998,-0.418110013,0.198500007,0.368939996,0.338090003,0.043710001,0.768959999,-0.05209,1.416499972,1.970000029,-0.897029996,-0.462850004,0.094209999,0.249160007,-0.105779998,1.032500029,-0.970879972,0.624960005,-0.43423,-0.145940006,0.148839995,-0.194519997,-0.711399972,-0.872309983,-0.691829979,0.871259987,0.680779994,-0.835609972,-0.403160006,-0.296490014,-0.228279993,1.103800058,-0.208680004,-0.23003,0.732760012
protagonist,0.418159992,0.628979981,-0.359519988,-0.182589993,1.170899987,1.128900051,0.229949996,0.135000005,-0.217869997,0.411599994,-0.15783,1.01730001,-0.376940012,0.455480009,0.325780004,-0.614650011,0.081830002,0.38707,-0.044569999,0.896830022,-0.562380016,0.382010013,-0.191440001,1.128299952,1.078999996,-0.835309982,-0.61601001,-0.202250004,0.076504,0.037085,0.899280012,-0.680320024,0.51394999,-0.657459974,0.092596002,0.709389985,-0.59066999,-0.388220012,-0.66881001,-0.968020022,0.180790007,0.481559992,-0.757589996,-0.537739992,-0.075984001,-0.237200007,0.831770003,-0.876230001,0.301149994,0.362029999
butcher,-0.66970998,-0.655560017,-0.524489999,-0.476179987,1.297899961,0.200259998,-0.403149992,0.018653,0.44641,-0.124650002,-0.31942001,0.267199993,-0.73277998,-0.308970004,0.139019996,0.176390007,0.593060017,0.124530002,-0.22168,0.321150005,0.351579994,0.270839989,0.429699987,0.679449975,-0.534380019,-0.634819984,0.104189999,0.019549999,0.467319995,-0.04789,0.94630003,-0.739139974,0.788640022,1.287700057,0.445959985,0.374220014,0.443540007,0.345530003,0.627020001,0.176109999,0.474040002,0.180840001,-0.525349975,0.191420004,1.21420002,0.4824,-0.577090025,-0.756969988,0.107260004,0.490920007
inventor,-0.342480004,0.075755,0.508099973,0.181319997,0.010484,1.352200031,-0.955190003,-0.737820029,-0.300579995,1.048799992,0.830640018,0.831449986,0.157989994,0.429910004,-0.07587,-0.411229998,-0.230560005,1.11469996,-0.524290025,-0.088197,0.544550002,0.042349,-1.07949996,-0.179120004,0.751399994,-1.513299942,-1.027799964,-1.282899976,-0.109669998,0.280360013,0.180010006,-1.626999974,-0.646019995,-0.171299994,0.474020004,0.145490006,-0.020581,1.311499953,0.480589986,-0.093099996,1.368899941,0.481130004,-0.367269993,0.184870005,0.204620004,0.480879992,-0.26910001,-0.297470003,0.215709999,-0.066377997
accountant,-0.408789992,-0.32942,0.041136999,-0.319319993,0.655690014,-0.265689999,-0.633220017,0.560800016,0.033677999,-0.592939973,0.023595,0.606660008,-0.386909992,0.350950003,0.402420014,-0.511590004,-0.292840004,0.747359991,0.635200024,0.373129994,0.50037998,0.842029989,-0.153150007,0.533649981,-0.60789001,-1.403599977,-0.335209996,-0.652059972,-0.572399974,0.392580003,0.385309994,-0.858709991,0.022102,-0.036013,0.602540016,0.200310007,-0.590569973,0.727090001,1.724799991,-0.679409981,0.0045453,0.099737003,0.39192,0.935850024,-0.383870006,-1.079399943,-0.350300014,0.072287001,0.75891,0.834519982
maid,0.376560003,0.027896,-1.487800002,0.105190001,1.46389997,0.259200007,-0.086492002,0.60996002,0.686479986,0.133159995,-0.208460003,0.378809988,0.688449979,0.087396003,1.054800034,-1.285899997,-0.903320014,0.899670005,0.414829999,-0.049865,0.478489995,1.200299978,-0.191420004,0.482160002,-0.459439993,-0.71566999,0.326000005,0.084374003,-0.015554,-0.176960006,0.723569989,-0.144879997,-0.335900009,0.848070025,0.166460007,0.659609973,-0.034394,-0.413020015,0.699559987,-1.199900031,-0.031241,0.099339999,0.235019997,-0.141420007,0.613849998,-0.446069986,-0.694920003,-1.556100011,0.946640015,-0.179900005
preacher,-0.485549986,0.018509001,-0.756439984,-1.647500038,1.411800027,-0.129690006,-0.930710018,0.054517999,-0.354449987,0.830829978,-0.550260007,-0.236289993,0.219899997,0.114260003,-0.742879987,-0.685899973,-0.368519992,0.222709998,0.011034,0.828459978,-0.52888,0.907620013,-0.227489993,1.07130003,0.112669997,-1.481899977,0.034570999,-0.371760011,-0.249669999,0.689409971,0.623340011,-0.853670001,-0.510749996,0.078128003,0.133070007,-0.507929981,-0.107950002,-0.366019994,-0.050083999,0.561950028,0.376029998,0.589470029,-1.916800022,0.730229974,0.890749991,0.38688001,-0.849059999,-0.728879988,-0.056191001,0.065816
technician,-0.565090001,-0.223000005,0.832690001,0.192300007,-0.018455001,-0.297179997,-0.501630008,0.359059989,0.649699986,-0.240270004,1.127799988,-0.114129998,-0.012892,1.039199948,-0.508930027,0.107519999,-1.033400059,1.185199976,0.053833,-0.179330006,0.28380999,1.288400054,-0.822979987,-0.349810004,0.076709002,-1.003100038,-0.269730002,-0.492390007,0.053888999,0.166240007,1.13259995,-0.897740006,-0.159199998,-0.531870008,0.74071002,0.966430008,0.847490013,0.589150012,1.584300041,0.127159998,0.778559983,0.213949993,0.242009997,0.352999985,0.714280009,-0.434480011,0.557399988,0.238769993,-0.016662,1.036200047
